{"learner":{"attributes":{"scikit_learn":"{\"_estimator_type\": \"classifier\"}"},"feature_names":[],"feature_types":[],"gradient_booster":{"model":{"gbtree_model_param":{"num_parallel_tree":"1","num_trees":"200"},"iteration_indptr":[0,1,2,3,4,5,6,7,8,9,10,11,12,13,14,15,16,17,18,19,20,21,22,23,24,25,26,27,28,29,30,31,32,33,34,35,36,37,38,39,40,41,42,43,44,45,46,47,48,49,50,51,52,53,54,55,56,57,58,59,60,61,62,63,64,65,66,67,68,69,70,71,72,73,74,75,76,77,78,79,80,81,82,83,84,85,86,87,88,89,90,91,92,93,94,95,96,97,98,99,100,101,102,103,104,105,106,107,108,109,110,111,112,113,114,115,116,117,118,119,120,121,122,123,124,125,126,127,128,129,130,131,132,133,134,135,136,137,138,139,140,141,142,143,144,145,146,147,148,149,150,151,152,153,154,155,156,157,158,159,160,161,162,163,164,165,166,167,168,169,170,171,172,173,174,175,176,177,178,179,180,181,182,183,184,185,186,187,188,189,190,191,192,193,194,195,196,197,198,199,200],"tree_info":[0,0,0,0,0,0,0,0,0,0,0,0,0,0,0,0,0,0,0,0,0,0,0,0,0,0,0,0,0,0,0,0,0,0,0,0,0,0,0,0,0,0,0,0,0,0,0,0,0,0,0,0,0,0,0,0,0,0,0,0,0,0,0,0,0,0,0,0,0,0,0,0,0,0,0,0,0,0,0,0,0,0,0,0,0,0,0,0,0,0,0,0,0,0,0,0,0,0,0,0,0,0,0,0,0,0,0,0,0,0,0,0,0,0,0,0,0,0,0,0,0,0,0,0,0,0,0,0,0,0,0,0,0,0,0,0,0,0,0,0,0,0,0,0,0,0,0,0,0,0,0,0,0,0,0,0,0,0,0,0,0,0,0,0,0,0,0,0,0,0,0,0,0,0,0,0,0,0,0,0,0,0,0,0,0,0,0,0,0,0,0,0,0,0,0,0,0,0,0,0],"trees":[{"base_weights":[5.1667047E-7,9.204689E-1,-1.127062E0,-1.9561595E-1,1.3679317E0,-2.1853319E-1,-1.546113E0,-1.3876301E0,1.2279777E-1,6.815076E-1,1.598791E0,1.0227939E0,-7.1794814E-1,-1.7400122E0,-9.922744E-1,-1.7182754E0,-3.5890967E-1,-5.83096E-1,6.662666E-1,1.297891E0,1.8450813E-1,1.7594442E0,8.5380983E-1,1.5708609E0,-1.2548096E-1,-1.1520859E0,3.6208387E-2,-1.7985227E0,-8.5947275E-1,-4.783709E-1,-1.5328158E0,-1.8232144E-1,-3.292289E-2,1.2811889E-1,-8.228794E-2,-1.3615844E-2,-1.2580769E-1,1.2709951E-1,2.6102369E-3,7.256176E-2,1.7247544E-1,1.04393296E-1,-2.4195714E-2,1.7885594E-1,3.4820516E-2,1.146601E-1,-4.6618152E-2,-2.1361193E-2,1.712919E-1,8.807839E-2,-1.1587202E-1,-1.3140225E-1,7.118654E-2,-1.07303634E-1,6.2338468E-2,7.574998E-2,-1.8139005E-1,6.519746E-2,-1.3005842E-1,-9.337994E-2,4.6151053E-2,-1.6570207E-1,-8.362546E-3],"categories":[],"categories_nodes":[],"categories_segments":[],"categories_sizes":[],"default_left":[0,0,0,0,0,0,0,0,0,0,0,0,0,0,0,0,0,0,0,0,0,0,0,0,0,0,0,0,0,0,0,0,0,0,0,0,0,0,0,0,0,0,0,0,0,0,0,0,0,0,0,0,0,0,0,0,0,0,0,0,0,0,0],"id":0,"left_children":[1,3,5,7,9,11,13,15,17,19,21,23,25,27,29,31,33,35,37,39,41,43,45,47,49,51,53,55,57,59,61,-1,-1,-1,-1,-1,-1,-1,-1,-1,-1,-1,-1,-1,-1,-1,-1,-1,-1,-1,-1,-1,-1,-1,-1,-1,-1,-1,-1,-1,-1,-1,-1],"loss_changes":[2.076776E3,5.505737E2,3.422854E2,1.20195595E2,1.2357556E2,1.775587E2,6.439331E1,2.2086136E1,9.6481224E1,6.0947975E1,6.88667E1,5.1955933E1,6.6828125E1,2.1881592E1,4.4264877E1,6.7239227E0,1.4370085E1,3.2859673E1,5.4934727E1,2.0488098E1,4.1207684E1,1.9211182E1,4.1595276E1,1.4497467E1,2.9610678E1,4.002112E1,4.9840233E1,1.8097412E1,2.1014725E1,3.6598503E1,1.3990158E1,0E0,0E0,0E0,0E0,0E0,0E0,0E0,0E0,0E0,0E0,0E0,0E0,0E0,0E0,0E0,0E0,0E0,0E0,0E0,0E0,0E0,0E0,0E0,0E0,0E0,0E0,0E0,0E0,0E0,0E0,0E0,0E0],"parents":[2147483647,0,0,1,1,2,2,3,3,4,4,5,5,6,6,7,7,8,8,9,9,10,10,11,11,12,12,13,13,14,14,15,15,16,16,17,17,18,18,19,19,20,20,21,21,22,22,23,23,24,24,25,25,26,26,27,27,28,28,29,29,30,30],"right_children":[2,4,6,8,10,12,14,16,18,20,22,24,26,28,30,32,34,36,38,40,42,44,46,48,50,52,54,56,58,60,62,-1,-1,-1,-1,-1,-1,-1,-1,-1,-1,-1,-1,-1,-1,-1,-1,-1,-1,-1,-1,-1,-1,-1,-1,-1,-1,-1,-1,-1,-1,-1,-1],"split_conditions":[4.0345162E-1,-1.9829692E-1,-1.6786002E-1,-2.2800824E-1,2.1570604E-1,-2.3896328E-1,1.0663211E-1,2.8033316E-4,3.5308996E-1,2.703958E-1,-3.3767056E-1,1.980445E-1,2.4123766E-1,2.385691E-1,9.909384E-2,2.224631E-1,-1.4055772E0,-2.278329E-1,-2.0912313E-1,-1.9403564E-2,-4.4662538E-1,2.0880951E-1,2.508026E-1,-1.9254415E-1,3.188724E-1,2.5453573E-1,-8.238848E-2,-3.7123775E-1,1.372988E-1,-1.6545881E-1,-8.1799686E-2,-1.8232144E-1,-3.292289E-2,1.2811889E-1,-8.228794E-2,-1.3615844E-2,-1.2580769E-1,1.2709951E-1,2.6102369E-3,7.256176E-2,1.7247544E-1,1.04393296E-1,-2.4195714E-2,1.7885594E-1,3.4820516E-2,1.146601E-1,-4.6618152E-2,-2.1361193E-2,1.712919E-1,8.807839E-2,-1.1587202E-1,-1.3140225E-1,7.118654E-2,-1.07303634E-1,6.2338468E-2,7.574998E-2,-1.8139005E-1,6.519746E-2,-1.3005842E-1,-9.337994E-2,4.6151053E-2,-1.6570207E-1,-8.362546E-3],"split_indices":[221,365,363,408,620,430,401,106,649,221,690,384,620,118,24,94,229,733,561,429,690,169,464,763,183,401,746,16,31,365,133,0,0,0,0,0,0,0,0,0,0,0,0,0,0,0,0,0,0,0,0,0,0,0,0,0,0,0,0,0,0,0,0],"split_type":[0,0,0,0,0,0,0,0,0,0,0,0,0,0,0,0,0,0,0,0,0,0,0,0,0,0,0,0,0,0,0,0,0,0,0,0,0,0,0,0,0,0,0,0,0,0,0,0,0,0,0,0,0,0,0,0,0,0,0,0,0,0,0],"sum_hessian":[1.9998555E3,1.1009204E3,8.9893506E2,3.1522723E2,7.8569324E2,2.8422946E2,6.1470557E2,6.574525E1,2.4948198E2,1.9873564E2,5.869576E2,8.124413E1,2.0298534E2,4.5371722E2,1.6098837E2,4.924644E1,1.6498808E1,1.08492165E2,1.409898E2,8.7993645E1,1.10742E2,4.817152E2,1.0524239E2,5.4746044E1,2.6498085E1,1.2849072E2,7.449462E1,4.2446933E2,2.9247887E1,8.3493965E1,7.74944E1,4.549671E1,3.7497292E0,3.2497652E0,1.32490425E1,6.599523E1,4.249693E1,7.19948E1,6.899502E1,3.87472E1,4.924644E1,3.6247383E1,7.449462E1,4.717159E2,9.999277E0,8.624377E1,1.8998627E1,3.999711E0,5.0746334E1,1.3499024E1,1.2999061E1,1.1849144E2,9.999277E0,2.5498158E1,4.899646E1,2.2498374E0,4.2221948E2,6.4995303E0,2.2748356E1,5.6245937E1,2.7248032E1,7.124485E1,6.2495484E0],"tree_param":{"num_deleted":"0","num_feature":"768","num_nodes":"63","size_leaf_vector":"1"}},{"base_weights":[1.1640655E-4,9.095381E-1,-9.360434E-1,-1.0089671E-1,1.2835459E0,-1.1027247E-1,-1.3624511E0,7.1164E-1,-5.1784307E-1,1.5314584E0,7.734338E-1,9.948528E-1,-5.718187E-1,-2.2413456E-1,-1.4600501E0,1.0461055E0,-5.8985656E-1,-1.8280758E-1,-1.4440817E0,1.5553151E0,-4.2757893E-1,1.3186008E0,2.4529117E-1,-4.433847E-1,1.3453492E0,-9.2503875E-1,3.5141307E-1,-1.6184312E0,3.1196046E-1,-1.6025615E0,-9.693326E-1,1.3157979E-1,-1.916255E-2,7.198291E-2,-1.1453704E-1,1.05221905E-1,-4.5969047E-2,-1.5474063E-1,6.283517E-2,-7.9341315E-2,1.5750271E-1,8.150496E-2,-1.3509607E-1,4.5102518E-2,1.5745473E-1,9.441819E-2,-1.7537544E-2,-1.4620522E-1,4.5946714E-2,-3.1094333E-2,1.4716114E-1,-1.2285987E-1,-1.0223662E-2,8.427894E-2,-8.757087E-2,-1.5854089E-2,-1.7417407E-1,8.343256E-2,-1.128669E-1,-1.6522221E-1,-8.70605E-2,-8.927514E-3,-1.2904388E-1],"categories":[],"categories_nodes":[],"categories_segments":[],"categories_sizes":[],"default_left":[0,0,0,0,0,0,0,0,0,0,0,0,0,0,0,0,0,0,0,0,0,0,0,0,0,0,0,0,0,0,0,0,0,0,0,0,0,0,0,0,0,0,0,0,0,0,0,0,0,0,0,0,0,0,0,0,0,0,0,0,0,0,0],"id":1,"left_children":[1,3,5,7,9,11,13,15,17,19,21,23,25,27,29,31,33,35,37,39,41,43,45,47,49,51,53,55,57,59,61,-1,-1,-1,-1,-1,-1,-1,-1,-1,-1,-1,-1,-1,-1,-1,-1,-1,-1,-1,-1,-1,-1,-1,-1,-1,-1,-1,-1,-1,-1,-1,-1],"loss_changes":[1.6951875E3,3.818172E2,3.4532684E2,9.312009E1,9.204639E1,1.7154367E2,7.154761E1,4.121609E1,5.6063366E1,2.3803589E1,6.967934E1,5.0560715E1,7.763934E1,3.95755E1,4.010388E1,2.5140213E1,1.5162409E1,4.645701E1,1.1265831E1,2.390564E1,8.835798E0,2.5804565E1,3.683344E1,1.9225561E1,1.717575E1,4.277336E1,4.073412E1,2.3661194E0,2.9983799E1,1.5285522E1,3.84843E1,0E0,0E0,0E0,0E0,0E0,0E0,0E0,0E0,0E0,0E0,0E0,0E0,0E0,0E0,0E0,0E0,0E0,0E0,0E0,0E0,0E0,0E0,0E0,0E0,0E0,0E0,0E0,0E0,0E0,0E0,0E0,0E0],"parents":[2147483647,0,0,1,1,2,2,3,3,4,4,5,5,6,6,7,7,8,8,9,9,10,10,11,11,12,12,13,13,14,14,15,15,16,16,17,17,18,18,19,19,20,20,21,21,22,22,23,23,24,24,25,25,26,26,27,27,28,28,29,29,30,30],"right_children":[2,4,6,8,10,12,14,16,18,20,22,24,26,28,30,32,34,36,38,40,42,44,46,48,50,52,54,56,58,60,62,-1,-1,-1,-1,-1,-1,-1,-1,-1,-1,-1,-1,-1,-1,-1,-1,-1,-1,-1,-1,-1,-1,-1,-1,-1,-1,-1,-1,-1,-1,-1,-1],"split_conditions":[3.842561E-1,-1.9967666E-1,-1.6786002E-1,-5.107667E-1,-1.1962259E-1,-2.3896328E-1,8.7483644E-2,1.2830548E-1,2.3913215E-1,2.518203E-1,2.521347E-1,-2.3621231E-2,2.753098E-1,-1.852099E-1,-1.9547267E-1,-2.307833E-1,1.1444402E-2,-2.8619513E-1,5.446417E-1,-3.0501585E-2,-6.866571E-3,-1.3920562E-1,-1.4124906E-2,2.1705285E-1,-1.9254415E-1,1.6945596E-1,-9.347112E-3,-2.5514863E-2,9.6277565E-2,-2.994025E-2,-7.649215E-2,1.3157979E-1,-1.916255E-2,7.198291E-2,-1.1453704E-1,1.05221905E-1,-4.5969047E-2,-1.5474063E-1,6.283517E-2,-7.9341315E-2,1.5750271E-1,8.150496E-2,-1.3509607E-1,4.5102518E-2,1.5745473E-1,9.441819E-2,-1.7537544E-2,-1.4620522E-1,4.5946714E-2,-3.1094333E-2,1.4716114E-1,-1.2285987E-1,-1.0223662E-2,8.427894E-2,-8.757087E-2,-1.5854089E-2,-1.7417407E-1,8.343256E-2,-1.128669E-1,-1.6522221E-1,-8.70605E-2,-8.927514E-3,-1.2904388E-1],"split_indices":[221,365,363,396,430,430,367,169,648,169,221,391,620,228,239,733,298,761,509,94,563,750,303,620,763,401,328,126,24,726,520,0,0,0,0,0,0,0,0,0,0,0,0,0,0,0,0,0,0,0,0,0,0,0,0,0,0,0,0,0,0,0,0],"split_type":[0,0,0,0,0,0,0,0,0,0,0,0,0,0,0,0,0,0,0,0,0,0,0,0,0,0,0,0,0,0,0,0,0,0,0,0,0,0,0,0,0,0,0,0,0,0,0,0,0,0,0,0,0,0,0,0,0,0,0,0,0,0,0],"sum_hessian":[1.989143E3,1.00899493E3,9.801481E2,2.7277768E2,7.362172E2,3.3420105E2,6.45947E2,9.226558E1,1.8051212E2,4.9408948E2,2.4212775E2,9.811625E1,2.3608478E2,5.1270096E1,5.9467694E2,7.355839E1,1.8707193E1,1.3344153E2,4.707059E1,4.883485E2,5.740944E0,1.1840715E2,1.23720604E2,1.9173622E1,7.894263E1,1.7075394E2,6.533084E1,1.3677694E1,3.7592403E1,4.5908603E2,1.3559091E2,6.0346306E1,1.3212081E1,5.4834824E0,1.3223712E1,2.3924936E1,1.0951659E2,4.507656E1,1.9940294E0,3.7377377E0,4.8461078E2,2.4974098E0,3.243534E0,2.7603258E1,9.080389E1,4.601963E1,7.770097E1,8.717966E0,1.0455656E1,5.488071E0,7.345456E1,1.2437466E2,4.6379284E1,4.6874207E1,1.8456638E1,1.2433296E0,1.2434364E1,2.7897696E1,9.694707E0,4.2874023E2,3.0345797E1,3.6589073E1,9.900184E1],"tree_param":{"num_deleted":"0","num_feature":"768","num_nodes":"63","size_leaf_vector":"1"}},{"base_weights":[-1.3128547E-5,7.632844E-1,-9.3461907E-1,-1.6028145E-1,1.1388967E0,-1.8883957E-1,-1.2866689E0,3.6044607E-1,-7.520481E-1,1.4008586E0,6.526298E-1,8.389097E-1,-5.959831E-1,-1.4774945E0,-8.21904E-1,-6.334428E-1,6.9296515E-1,-1.0965812E0,1.8193755E-1,1.4225175E0,-9.2745167E-1,1.2304789E0,1.9365017E-1,1.3361171E0,-1.8009041E-1,-1.4656392E-1,-1.161318E0,1.2395566E-1,-1.4899915E0,-1.2913313E0,-2.1109825E-1,-1.3247517E-1,2.8000226E-2,9.5697775E-2,-2.7477397E-2,-1.2180594E-1,7.666214E-2,8.655587E-2,-8.4679626E-2,3.906266E-2,1.4755185E-1,5.4717775E-2,-1.5158074E-1,1.4206623E-1,2.3700103E-2,-5.895244E-2,5.3110164E-2,1.5015364E-1,2.6502341E-3,6.7163624E-2,-1.0593679E-1,-5.1968005E-2,8.235576E-2,-1.3775396E-1,-8.19454E-3,-1.5100656E-1,1.7676257E-2,-6.080047E-3,-1.4404322E-1,4.3791186E-2,-8.462464E-2],"categories":[],"categories_nodes":[],"categories_segments":[],"categories_sizes":[],"default_left":[0,0,0,0,0,0,0,0,0,0,0,0,0,0,0,0,0,0,0,0,0,0,0,0,0,0,0,0,0,0,0,0,0,0,0,0,0,0,0,0,0,0,0,0,0,0,0,0,0,0,0,0,0,0,0,0,0,0,0,0,0],"id":2,"left_children":[1,3,5,7,9,11,13,15,17,19,21,23,25,27,29,31,33,35,37,39,41,43,45,47,49,51,53,-1,55,57,59,-1,-1,-1,-1,-1,-1,-1,-1,-1,-1,-1,-1,-1,-1,-1,-1,-1,-1,-1,-1,-1,-1,-1,-1,-1,-1,-1,-1,-1,-1],"loss_changes":[1.4025671E3,3.7560864E2,2.3181506E2,9.6957146E1,9.710199E1,1.1959077E2,5.2021362E1,5.582057E1,4.756304E1,2.649292E1,7.170745E1,4.1366142E1,5.1771034E1,1.6253357E1,5.047026E1,2.722888E1,3.246647E1,2.5302826E1,2.9230425E1,2.6495117E1,5.346369E0,2.231694E1,4.058205E1,1.1803955E1,2.1305933E1,4.206813E1,2.0984253E1,0E0,1.4412781E1,1.8236115E1,3.256493E1,0E0,0E0,0E0,0E0,0E0,0E0,0E0,0E0,0E0,0E0,0E0,0E0,0E0,0E0,0E0,0E0,0E0,0E0,0E0,0E0,0E0,0E0,0E0,0E0,0E0,0E0,0E0,0E0,0E0,0E0],"parents":[2147483647,0,0,1,1,2,2,3,3,4,4,5,5,6,6,7,7,8,8,9,9,10,10,11,11,12,12,13,13,14,14,15,15,16,16,17,17,18,18,19,19,20,20,21,21,22,22,23,23,24,24,25,25,26,26,28,28,29,29,30,30],"right_children":[2,4,6,8,10,12,14,16,18,20,22,24,26,28,30,32,34,36,38,40,42,44,46,48,50,52,54,-1,56,58,60,-1,-1,-1,-1,-1,-1,-1,-1,-1,-1,-1,-1,-1,-1,-1,-1,-1,-1,-1,-1,-1,-1,-1,-1,-1,-1,-1,-1,-1,-1],"split_conditions":[4.0345162E-1,-1.9829692E-1,-1.6667561E-1,1.9838078E-1,-1.2187257E-1,-2.3896328E-1,1.7155975E-2,-2.9468844E0,2.224631E-1,3.289448E-1,-5.2422935E-1,1.980445E-1,6.120347E-2,-1.3778378E-2,1.3647687E-1,2.40286E-1,-4.0231478E-1,3.6826544E-2,-7.0423773E-3,-3.599346E-1,8.590294E-2,8.4313884E-2,1.1674557E-1,6.964669E-2,3.188724E-1,2.6942605E-1,8.275499E-2,1.2395566E-1,2.8444222E-1,9.6365765E-2,-1.7632177E-2,-1.3247517E-1,2.8000226E-2,9.5697775E-2,-2.7477397E-2,-1.2180594E-1,7.666214E-2,8.655587E-2,-8.4679626E-2,3.906266E-2,1.4755185E-1,5.4717775E-2,-1.5158074E-1,1.4206623E-1,2.3700103E-2,-5.895244E-2,5.3110164E-2,1.5015364E-1,2.6502341E-3,6.7163624E-2,-1.0593679E-1,-5.1968005E-2,8.235576E-2,-1.3775396E-1,-8.19454E-3,-1.5100656E-1,1.7676257E-2,-6.080047E-3,-1.4404322E-1,4.3791186E-2,-8.462464E-2],"split_indices":[221,365,363,367,253,430,579,273,94,473,103,384,728,367,602,603,103,161,45,435,178,728,426,43,183,620,579,0,94,522,420,0,0,0,0,0,0,0,0,0,0,0,0,0,0,0,0,0,0,0,0,0,0,0,0,0,0,0,0,0,0],"split_type":[0,0,0,0,0,0,0,0,0,0,0,0,0,0,0,0,0,0,0,0,0,0,0,0,0,0,0,0,0,0,0,0,0,0,0,0,0,0,0,0,0,0,0,0,0,0,0,0,0,0,0,0,0,0,0,0,0,0,0,0,0],"sum_hessian":[1.9640803E3,1.0812231E3,8.828572E2,3.127639E2,7.684592E2,2.8360562E2,5.992516E2,1.6657574E2,1.4618813E2,4.981921E2,2.7026715E2,8.017075E1,2.0343489E2,4.2328E2,1.7597157E2,4.1532238E1,1.250435E2,1.0666641E2,3.952172E1,4.9398587E2,4.2062225E0,1.188968E2,1.5137033E2,5.3671337E1,2.6499414E1,1.1403821E2,8.939668E1,1.4884039E0,4.217916E2,9.887119E1,7.710038E1,2.338434E1,1.8147898E1,9.825053E1,2.679298E1,1.0046265E2,6.203764E0,2.383881E1,1.568291E1,2.4541975E1,4.694439E2,1.2195594E0,2.986663E0,9.9432304E1,1.9464497E1,4.5356853E1,1.0601348E2,4.7522198E1,6.14914E0,1.3580544E1,1.291887E1,8.2696724E1,3.1341478E1,7.424712E1,1.5149552E1,4.16865E2,4.9266124E0,1.0837449E1,8.8033745E1,3.828765E1,3.8812733E1],"tree_param":{"num_deleted":"0","num_feature":"768","num_nodes":"61","size_leaf_vector":"1"}},{"base_weights":[2.012946E-5,7.647717E-1,-7.8783214E-1,-7.912922E-2,1.0852288E0,-9.521973E-2,-1.1519704E0,-6.537178E-1,4.0154886E-1,4.0069562E-1,1.2409363E0,8.400808E-1,-4.785383E-1,-1.3424641E0,-6.439864E-1,-3.0958587E-3,-1.2014811E0,-7.3678255E-1,7.012682E-1,-8.0856776E-1,6.957726E-1,1.4202169E0,8.5803664E-1,-9.4538495E-2,1.2959721E0,-1.1530467E0,-1.1916555E-1,-1.4307781E0,-7.772074E-1,-1.0135834E0,-6.663536E-2,-5.9185725E-2,9.101085E-2,-1.3903944E-1,-6.2703686E-3,5.7079025E-2,-1.11325435E-1,-8.397467E-3,1.0329117E-1,-1.1821623E-1,8.807114E-2,-1.0331273E-1,9.7213425E-2,-4.7822412E-2,1.4489238E-1,-1.4340616E-2,1.0520705E-1,4.552512E-2,-1.5567999E-1,-1.1161941E-1,1.3606732E-1,-1.365505E-1,-1.8631747E-2,-6.3668154E-2,6.200702E-2,-1.4479321E-1,3.941325E-2,6.567716E-2,-1.03054084E-1,-1.2716396E-1,-6.6527785E-3,-9.979376E-2,3.9181907E-2],"categories":[],"categories_nodes":[],"categories_segments":[],"categories_sizes":[],"default_left":[0,0,0,0,0,0,0,0,0,0,0,0,0,0,0,0,0,0,0,0,0,0,0,0,0,0,0,0,0,0,0,0,0,0,0,0,0,0,0,0,0,0,0,0,0,0,0,0,0,0,0,0,0,0,0,0,0,0,0,0,0,0,0],"id":3,"left_children":[1,3,5,7,9,11,13,15,17,19,21,23,25,27,29,31,33,35,37,39,41,43,45,47,49,51,53,55,57,59,61,-1,-1,-1,-1,-1,-1,-1,-1,-1,-1,-1,-1,-1,-1,-1,-1,-1,-1,-1,-1,-1,-1,-1,-1,-1,-1,-1,-1,-1,-1,-1,-1],"loss_changes":[1.1634119E3,2.6506622E2,2.3976508E2,7.500119E1,7.520404E1,1.18291466E2,5.944879E1,4.406055E1,5.0998444E1,4.8053123E1,3.8468567E1,4.1005844E1,5.655345E1,2.147052E1,3.6615242E1,3.1463362E1,1.4353302E1,1.6056122E1,3.0721638E1,1.780867E1,5.2379078E1,2.2069458E1,3.646733E1,2.6748592E1,1.1594719E1,1.6418716E1,5.919336E1,1.2781128E1,2.367804E1,2.5513405E1,2.9495277E1,0E0,0E0,0E0,0E0,0E0,0E0,0E0,0E0,0E0,0E0,0E0,0E0,0E0,0E0,0E0,0E0,0E0,0E0,0E0,0E0,0E0,0E0,0E0,0E0,0E0,0E0,0E0,0E0,0E0,0E0,0E0,0E0],"parents":[2147483647,0,0,1,1,2,2,3,3,4,4,5,5,6,6,7,7,8,8,9,9,10,10,11,11,12,12,13,13,14,14,15,15,16,16,17,17,18,18,19,19,20,20,21,21,22,22,23,23,24,24,25,25,26,26,27,27,28,28,29,29,30,30],"right_children":[2,4,6,8,10,12,14,16,18,20,22,24,26,28,30,32,34,36,38,40,42,44,46,48,50,52,54,56,58,60,62,-1,-1,-1,-1,-1,-1,-1,-1,-1,-1,-1,-1,-1,-1,-1,-1,-1,-1,-1,-1,-1,-1,-1,-1,-1,-1,-1,-1,-1,-1,-1,-1],"split_conditions":[3.842561E-1,-1.9967666E-1,-1.6786002E-1,3.960054E-1,1.2673038E-1,-2.3896328E-1,1.0663211E-1,1.3140164E-2,-3.1540623E-1,-1.7549899E-1,-4.0150535E-1,-1.9210829E-1,-2.3032406E-1,1.9549584E-1,1.159592E-1,2.7262068E-1,3.6073476E-1,8.906979E-2,3.2560253E-1,-1.430918E-1,-1.9188048E-1,-8.636974E-4,-1.3389578E-1,3.3158562E-1,2.048438E-1,3.1157961E-2,2.4123766E-1,2.1149665E-3,1.1951546E-1,1.2214948E-1,1.5313879E-1,-5.9185725E-2,9.101085E-2,-1.3903944E-1,-6.2703686E-3,5.7079025E-2,-1.11325435E-1,-8.397467E-3,1.0329117E-1,-1.1821623E-1,8.807114E-2,-1.0331273E-1,9.7213425E-2,-4.7822412E-2,1.4489238E-1,-1.4340616E-2,1.0520705E-1,4.552512E-2,-1.5567999E-1,-1.1161941E-1,1.3606732E-1,-1.365505E-1,-1.8631747E-2,-6.3668154E-2,6.200702E-2,-1.4479321E-1,3.941325E-2,6.567716E-2,-1.03054084E-1,-1.2716396E-1,-6.6527785E-3,-9.979376E-2,3.9181907E-2],"split_indices":[221,365,363,368,426,430,401,169,265,557,690,365,365,118,94,620,110,92,649,90,236,446,506,256,368,746,620,365,367,444,602,0,0,0,0,0,0,0,0,0,0,0,0,0,0,0,0,0,0,0,0,0,0,0,0,0,0,0,0,0,0,0,0],"split_type":[0,0,0,0,0,0,0,0,0,0,0,0,0,0,0,0,0,0,0,0,0,0,0,0,0,0,0,0,0,0,0,0,0,0,0,0,0,0,0,0,0,0,0,0,0,0,0,0,0,0,0,0,0,0,0,0,0,0,0,0,0,0,0],"sum_hessian":[1.9289379E3,9.788338E2,9.5010406E2,2.6960397E2,7.0922986E2,3.2782434E2,6.222797E2,1.22641685E2,1.4696228E2,1.3209169E2,5.771381E2,9.495114E1,2.3287318E2,4.5137256E2,1.7090717E2,5.6517277E1,6.6124405E1,3.032603E1,1.1663625E2,2.55685E1,1.06523186E2,3.9124225E2,1.8589589E2,3.1390453E1,6.3560688E1,8.017808E1,1.5269511E2,3.8905627E2,6.2316277E1,1.0374086E2,6.716631E1,3.45768E1,2.1940475E1,5.6526237E1,9.598168E0,6.664061E0,2.3661968E1,3.4855217E1,8.178104E1,2.1183775E1,4.3847256E0,1.4303448E1,9.221974E1,5.5947175E0,3.8564755E2,3.0214495E1,1.556814E2,2.331355E1,8.0769005E0,1.2358105E0,6.232488E1,6.5393936E1,1.47841425E1,8.989861E1,6.2796497E1,3.856379E2,3.4183662E0,9.11708E0,5.3199196E1,8.125701E1,2.248385E1,2.176871E1,4.5397602E1],"tree_param":{"num_deleted":"0","num_feature":"768","num_nodes":"63","size_leaf_vector":"1"}},{"base_weights":[-2.0329526E-4,5.6593484E-1,-9.192117E-1,-1.331859E-1,1.0126915E0,-2.520449E-1,-1.1586088E0,6.77482E-1,-4.5939678E-1,1.2836968E0,5.9360033E-1,2.7184358E-1,-9.4545764E-1,-1.3439463E0,-6.8552595E-1,1.2489921E0,1.0912598E-1,-1.0092484E0,-5.5182412E-2,-3.425513E-1,1.3130385E0,8.999592E-1,-6.0219783E-2,1.1841137E0,-2.1063432E-1,-1.0607247E0,1.1102008E0,-3.3814516E-2,-1.3715686E0,-1.1855831E0,-5.502797E-2,1.3813286E-1,-2.5637088E-2,7.280592E-2,-6.733253E-2,-2.7355915E-2,-1.261439E-1,4.4554375E-2,-6.961959E-2,-1.1937604E-1,1.15910806E-1,5.3486936E-3,1.3419127E-1,-1.9515509E-2,1.0588038E-1,-4.886062E-2,6.569249E-2,1.3833803E-1,-1.6410334E-2,-7.903118E-2,4.4932682E-2,-1.1996811E-1,2.6223639E-2,1.5410183E-1,-1.3272597E-2,1.08661115E-1,-1.1209976E-1,-1.422043E-1,-7.784622E-2,-1.3448043E-1,-3.1416565E-2,-9.910661E-2,4.3042097E-2],"categories":[],"categories_nodes":[],"categories_segments":[],"categories_sizes":[],"default_left":[0,0,0,0,0,0,0,0,0,0,0,0,0,0,0,0,0,0,0,0,0,0,0,0,0,0,0,0,0,0,0,0,0,0,0,0,0,0,0,0,0,0,0,0,0,0,0,0,0,0,0,0,0,0,0,0,0,0,0,0,0,0,0],"id":4,"left_children":[1,3,5,7,9,11,13,15,17,19,21,23,25,27,29,31,33,35,37,39,41,43,45,47,49,51,53,55,57,59,61,-1,-1,-1,-1,-1,-1,-1,-1,-1,-1,-1,-1,-1,-1,-1,-1,-1,-1,-1,-1,-1,-1,-1,-1,-1,-1,-1,-1,-1,-1,-1,-1],"loss_changes":[9.823581E2,3.6505807E2,1.1466461E2,1.2100763E2,8.021265E1,6.976626E1,4.549701E1,4.25334E1,7.241018E1,2.106903E1,5.6508286E1,4.8565346E1,2.0742859E1,1.368158E1,4.75626E1,1.3383614E1,3.291761E1,2.527324E1,6.0962685E1,1.2186469E1,1.537262E1,3.360205E1,2.8235529E1,1.0469116E1,2.8147573E1,1.4782036E1,2.8137898E0,1.2008106E1,1.0013977E1,1.12597275E1,3.1264545E1,0E0,0E0,0E0,0E0,0E0,0E0,0E0,0E0,0E0,0E0,0E0,0E0,0E0,0E0,0E0,0E0,0E0,0E0,0E0,0E0,0E0,0E0,0E0,0E0,0E0,0E0,0E0,0E0,0E0,0E0,0E0,0E0],"parents":[2147483647,0,0,1,1,2,2,3,3,4,4,5,5,6,6,7,7,8,8,9,9,10,10,11,11,12,12,13,13,14,14,15,15,16,16,17,17,18,18,19,19,20,20,21,21,22,22,23,23,24,24,25,25,26,26,27,27,28,28,29,29,30,30],"right_children":[2,4,6,8,10,12,14,16,18,20,22,24,26,28,30,32,34,36,38,40,42,44,46,48,50,52,54,56,58,60,62,-1,-1,-1,-1,-1,-1,-1,-1,-1,-1,-1,-1,-1,-1,-1,-1,-1,-1,-1,-1,-1,-1,-1,-1,-1,-1,-1,-1,-1,-1,-1,-1],"split_conditions":[4.3012622E-1,-1.6685368E-1,8.2358316E-2,-2.1264145E-1,1.2730542E-1,6.120347E-2,8.780268E-2,2.3633279E-1,1.2669434E-1,5.1091E-2,-1.2254968E0,-4.9785867E-1,4.1975847E-1,-1.3454834E-1,-3.1124678E-1,-4.027766E-2,8.942185E-2,-1.785369E-1,-1.8027751E-1,-2.7968078E0,-3.8050935E-1,-1.4042845E-1,2.3150532E-1,4.4497218E-2,1.0282957E-1,3.422118E-1,-5.40724E-1,1.1605838E-1,-3.8022984E-2,-2.9438827E-2,-2.71112E-1,1.3813286E-1,-2.5637088E-2,7.280592E-2,-6.733253E-2,-2.7355915E-2,-1.261439E-1,4.4554375E-2,-6.961959E-2,-1.1937604E-1,1.15910806E-1,5.3486936E-3,1.3419127E-1,-1.9515509E-2,1.0588038E-1,-4.886062E-2,6.569249E-2,1.3833803E-1,-1.6410334E-2,-7.903118E-2,4.4932682E-2,-1.1996811E-1,2.6223639E-2,1.5410183E-1,-1.3272597E-2,1.08661115E-1,-1.1209976E-1,-1.422043E-1,-7.784622E-2,-1.3448043E-1,-3.1416565E-2,-9.910661E-2,4.3042097E-2],"split_indices":[221,365,648,430,367,728,94,427,94,404,229,396,110,303,32,561,648,755,761,273,435,348,545,279,479,17,502,522,596,746,365,0,0,0,0,0,0,0,0,0,0,0,0,0,0,0,0,0,0,0,0,0,0,0,0,0,0,0,0,0,0,0,0],"split_type":[0,0,0,0,0,0,0,0,0,0,0,0,0,0,0,0,0,0,0,0,0,0,0,0,0,0,0,0,0,0,0,0,0,0,0,0,0,0,0,0,0,0,0,0,0,0,0,0,0,0,0,0,0,0,0,0,0,0,0,0,0,0,0],"sum_hessian":[1.8861129E3,1.167364E3,7.1874884E2,4.5540762E2,7.119564E2,1.9034271E2,5.284061E2,1.3036363E2,3.2504398E2,4.311138E2,2.8084265E2,1.0877146E2,8.157125E1,3.7834335E2,1.500628E2,6.4404335E1,6.595929E1,1.37079E2,1.8796498E2,7.4513774E0,4.236624E2,1.9097943E2,8.986323E1,3.7123688E1,7.164777E1,7.7698456E1,3.8727925E0,7.8580146E0,3.7048535E2,8.319736E1,6.686544E1,5.9275795E1,5.1285396E0,3.686663E1,2.909266E1,3.552636E1,1.01552635E2,1.0570147E2,8.226352E1,4.8865156E0,2.5648615E0,9.558413E0,4.14104E2,2.4163267E1,1.6681616E2,5.6457195E1,3.340603E1,3.2320618E1,4.803069E0,3.8038826E1,3.3608948E1,7.039749E1,7.3009677E0,2.6978471E0,1.1749455E0,3.8701026E0,3.9879122E0,3.401411E2,3.0344229E1,6.988506E1,1.3312297E1,2.2479372E1,4.4386066E1],"tree_param":{"num_deleted":"0","num_feature":"768","num_nodes":"63","size_leaf_vector":"1"}},{"base_weights":[-2.6619792E-4,5.052654E-1,-8.8403493E-1,-1.3393022E-1,9.319803E-1,-2.7323824E-1,-1.1008737E0,-7.395001E-1,2.4328499E-1,1.1596627E0,4.3789342E-1,-6.657355E-1,5.4221994E-1,-1.209822E0,-4.0083763E-1,-2.3420484E-1,-1.1348094E0,9.662093E-1,-1.0735053E-1,1.2763039E0,6.4852566E-1,7.645412E-1,-3.5054132E-1,-2.3356916E-2,-1.0794511E0,9.6736044E-1,-3.7770775E-1,-1.3401353E0,-8.80068E-1,5.625747E-1,-8.069823E-1,1.7275741E-2,-1.0945816E-1,-1.2219125E-1,9.6405365E-2,1.22183636E-1,-2.7729798E-2,2.602838E-2,-7.054724E-2,-4.4266075E-2,1.2972134E-1,1.1703844E-1,1.8911136E-2,1.1357763E-1,2.2312915E-2,-9.097594E-2,4.2059746E-2,7.625755E-2,-6.766408E-2,-1.19950674E-1,5.4872405E-2,-2.0376628E-2,1.3476084E-1,4.6649277E-2,-9.656718E-2,6.952638E-2,-1.3568887E-1,-1.2661645E-1,-3.8517963E-2,-1.04660146E-1,1.2131768E-1,-1.053666E-1,4.0318597E-2],"categories":[],"categories_nodes":[],"categories_segments":[],"categories_sizes":[],"default_left":[0,0,0,0,0,0,0,0,0,0,0,0,0,0,0,0,0,0,0,0,0,0,0,0,0,0,0,0,0,0,0,0,0,0,0,0,0,0,0,0,0,0,0,0,0,0,0,0,0,0,0,0,0,0,0,0,0,0,0,0,0,0,0],"id":5,"left_children":[1,3,5,7,9,11,13,15,17,19,21,23,25,27,29,31,33,35,37,39,41,43,45,47,49,51,53,55,57,59,61,-1,-1,-1,-1,-1,-1,-1,-1,-1,-1,-1,-1,-1,-1,-1,-1,-1,-1,-1,-1,-1,-1,-1,-1,-1,-1,-1,-1,-1,-1,-1,-1],"loss_changes":[8.234183E2,3.1990228E2,8.8520935E1,1.07592445E2,7.8596375E1,5.7023666E1,3.723712E1,3.5834427E1,7.3738396E1,2.7834778E1,5.7809055E1,3.185569E1,2.307824E1,1.7190613E1,2.7102291E1,2.8406507E1,1.9668182E1,3.0529709E1,4.3395134E1,1.4606201E1,2.1681534E1,3.1561539E1,2.8902332E1,2.5168938E1,1.4916855E1,1.8087132E1,9.918544E0,1.1326538E1,2.3205551E1,2.3031038E1,1.4849396E1,0E0,0E0,0E0,0E0,0E0,0E0,0E0,0E0,0E0,0E0,0E0,0E0,0E0,0E0,0E0,0E0,0E0,0E0,0E0,0E0,0E0,0E0,0E0,0E0,0E0,0E0,0E0,0E0,0E0,0E0,0E0,0E0],"parents":[2147483647,0,0,1,1,2,2,3,3,4,4,5,5,6,6,7,7,8,8,9,9,10,10,11,11,12,12,13,13,14,14,15,15,16,16,17,17,18,18,19,19,20,20,21,21,22,22,23,23,24,24,25,25,26,26,27,27,28,28,29,29,30,30],"right_children":[2,4,6,8,10,12,14,16,18,20,22,24,26,28,30,32,34,36,38,40,42,44,46,48,50,52,54,56,58,60,62,-1,-1,-1,-1,-1,-1,-1,-1,-1,-1,-1,-1,-1,-1,-1,-1,-1,-1,-1,-1,-1,-1,-1,-1,-1,-1,-1,-1,-1,-1,-1,-1],"split_conditions":[4.3641633E-1,-1.6685368E-1,8.2358316E-2,7.329188E-2,-1.6909776E-2,-2.1090853E0,-3.4169648E-2,2.1019079E-1,-5.1284266E-1,1.843244E-1,-7.27126E-2,7.711201E-2,2.215018E-1,7.692469E-2,-5.3699017E-2,4.542909E-2,-2.5157622E-1,-1.163839E0,-2.2751792E-1,-3.9679238E-1,1.5593821E-1,-3.957169E-2,-1.5645642E-2,-1.61726E-2,2.699342E-1,2.1368604E-2,3.5327598E-1,-3.7123775E-1,-3.2744405E-1,-2.0359422E-1,3.301745E-1,1.7275741E-2,-1.0945816E-1,-1.2219125E-1,9.6405365E-2,1.22183636E-1,-2.7729798E-2,2.602838E-2,-7.054724E-2,-4.4266075E-2,1.2972134E-1,1.1703844E-1,1.8911136E-2,1.1357763E-1,2.2312915E-2,-9.097594E-2,4.2059746E-2,7.625755E-2,-6.766408E-2,-1.19950674E-1,5.4872405E-2,-2.0376628E-2,1.3476084E-1,4.6649277E-2,-9.656718E-2,6.952638E-2,-1.3568887E-1,-1.2661645E-1,-3.8517963E-2,-1.04660146E-1,1.2131768E-1,-1.053666E-1,4.0318597E-2],"split_indices":[221,365,648,401,45,667,746,367,396,367,430,634,384,94,520,266,608,229,33,123,427,222,124,737,401,94,428,16,32,59,17,0,0,0,0,0,0,0,0,0,0,0,0,0,0,0,0,0,0,0,0,0,0,0,0,0,0,0,0,0,0,0,0],"split_type":[0,0,0,0,0,0,0,0,0,0,0,0,0,0,0,0,0,0,0,0,0,0,0,0,0,0,0,0,0,0,0,0,0,0,0,0,0,0,0,0,0,0,0,0,0,0,0,0,0,0,0,0,0,0,0,0,0,0,0,0,0,0,0],"sum_hessian":[1.8410352E3,1.171401E3,6.6963416E2,4.6922046E2,7.0218054E2,1.7603488E2,4.9359924E2,1.7972882E2,2.8949164E2,4.7975522E2,2.2242531E2,1.1896035E2,5.7074528E1,4.2649463E2,6.710463E1,7.9588745E1,1.0014008E2,9.39775E1,1.9551411E2,3.893979E2,9.035733E1,1.5729036E2,6.513495E1,4.701553E1,7.1944824E1,3.8999516E1,1.8075014E1,3.034946E2,1.2300001E2,1.9785784E1,4.731885E1,5.4574127E1,2.5014612E1,9.655102E1,3.5890632E0,7.796725E1,1.6010256E1,1.2143759E2,7.407653E1,4.437317E0,3.8496057E2,4.1579124E1,4.8778202E1,9.2658516E1,6.4631836E1,3.765115E1,2.74838E1,2.1265182E1,2.5750347E1,6.724938E1,4.6954427E0,9.672692E0,2.9326822E1,7.505373E0,1.0569641E1,2.1470287E0,3.013476E2,6.821911E1,5.47809E1,5.521193E0,1.426459E1,3.9413937E1,7.9049125E0],"tree_param":{"num_deleted":"0","num_feature":"768","num_nodes":"63","size_leaf_vector":"1"}},{"base_weights":[-2.8704214E-4,6.402009E-1,-6.1169904E-1,-6.2361294E-1,7.7847385E-1,-1.796276E-1,-1.0639738E0,7.7689976E-2,-1.0027924E0,1.17189184E-1,9.7400707E-1,6.5377754E-1,-4.5010442E-1,-6.588071E-1,-1.2191902E0,-7.6700526E-1,8.1913733E-1,5.8318734E-1,-1.1074481E0,-2.1342237E-1,9.5588255E-1,1.157739E0,3.990702E-1,-5.5309576E-1,9.5922065E-1,4.2053717E-1,-6.6153514E-1,7.7325845E-1,-7.952388E-1,-1.2387687E0,5.9623265E-1,5.171904E-2,-1.2795742E-1,-1.21165715E-1,1.12104766E-1,1.2676983E-1,-5.7523694E-2,1.7863307E-2,-1.2312793E-1,-9.420832E-2,2.0466033E-2,1.1930942E-1,-7.87479E-3,1.2108423E-1,-1.935207E-2,-1.5121858E-2,7.93189E-2,-1.01374365E-1,6.372227E-2,-2.2663563E-2,1.1724615E-1,8.0965675E-2,-8.100125E-2,-1.0450196E-1,-3.1309497E-2,1.3044135E-1,-8.162702E-2,6.8007566E-2,-8.9742966E-2,-1.2610792E-1,2.064023E-2,1.4746462E-1,-8.841063E-2],"categories":[],"categories_nodes":[],"categories_segments":[],"categories_sizes":[],"default_left":[0,0,0,0,0,0,0,0,0,0,0,0,0,0,0,0,0,0,0,0,0,0,0,0,0,0,0,0,0,0,0,0,0,0,0,0,0,0,0,0,0,0,0,0,0,0,0,0,0,0,0,0,0,0,0,0,0,0,0,0,0,0,0],"id":6,"left_children":[1,3,5,7,9,11,13,15,17,19,21,23,25,27,29,31,33,35,37,39,41,43,45,47,49,51,53,55,57,59,61,-1,-1,-1,-1,-1,-1,-1,-1,-1,-1,-1,-1,-1,-1,-1,-1,-1,-1,-1,-1,-1,-1,-1,-1,-1,-1,-1,-1,-1,-1,-1,-1],"loss_changes":[7.026023E2,1.5361157E2,1.7918466E2,2.3205112E1,1.02071655E2,1.06386536E2,2.7388E1,2.0324808E1,1.002739E1,5.0526695E1,6.395337E1,4.3191414E1,6.5796394E1,2.5299011E1,1.2216644E1,1.0678499E1,1.1923403E1,4.023087E0,8.719109E0,4.0097546E1,1.2732464E1,3.3356384E1,3.2479263E1,1.3809914E1,2.3712097E1,3.424889E1,3.7990784E1,1.0770935E1,1.8075256E1,1.0571808E1,6.6619554E0,0E0,0E0,0E0,0E0,0E0,0E0,0E0,0E0,0E0,0E0,0E0,0E0,0E0,0E0,0E0,0E0,0E0,0E0,0E0,0E0,0E0,0E0,0E0,0E0,0E0,0E0,0E0,0E0,0E0,0E0,0E0,0E0],"parents":[2147483647,0,0,1,1,2,2,3,3,4,4,5,5,6,6,7,7,8,8,9,9,10,10,11,11,12,12,13,13,14,14,15,15,16,16,17,17,18,18,19,19,20,20,21,21,22,22,23,23,24,24,25,25,26,26,27,27,28,28,29,29,30,30],"right_children":[2,4,6,8,10,12,14,16,18,20,22,24,26,28,30,32,34,36,38,40,42,44,46,48,50,52,54,56,58,60,62,-1,-1,-1,-1,-1,-1,-1,-1,-1,-1,-1,-1,-1,-1,-1,-1,-1,-1,-1,-1,-1,-1,-1,-1,-1,-1,-1,-1,-1,-1,-1,-1],"split_conditions":[3.748945E-1,-2.987204E-1,-1.2152942E-1,1.7044468E-1,2.0079194E-1,-2.5094157E-1,4.2662486E-1,2.703898E-1,-7.3967576E-2,-3.3726014E-2,-1.8879636E-1,-2.3621231E-2,5.034334E-2,-1.940103E-1,2.1149665E-3,4.661833E-2,2.1413532E-1,1.4888106E-1,-5.8330244E-1,-1.1571992E-2,3.0753994E-1,2.2545102E-1,-1.5413894E-1,-2.5049818E-1,-2.8961623E-1,9.63588E-2,-1.697775E-2,-5.322544E-2,-6.0586512E-2,4.308834E-1,6.169227E-2,5.171904E-2,-1.2795742E-1,-1.21165715E-1,1.12104766E-1,1.2676983E-1,-5.7523694E-2,1.7863307E-2,-1.2312793E-1,-9.420832E-2,2.0466033E-2,1.1930942E-1,-7.87479E-3,1.2108423E-1,-1.935207E-2,-1.5121858E-2,7.93189E-2,-1.01374365E-1,6.372227E-2,-2.2663563E-2,1.1724615E-1,8.0965675E-2,-8.100125E-2,-1.0450196E-1,-3.1309497E-2,1.3044135E-1,-8.162702E-2,6.8007566E-2,-8.9742966E-2,-1.2610792E-1,2.064023E-2,1.4746462E-1,-8.841063E-2],"split_indices":[221,365,363,427,620,430,165,453,669,365,626,391,61,466,365,341,509,166,510,590,221,648,119,133,119,728,579,681,169,620,262,0,0,0,0,0,0,0,0,0,0,0,0,0,0,0,0,0,0,0,0,0,0,0,0,0,0,0,0,0,0,0,0],"split_type":[0,0,0,0,0,0,0,0,0,0,0,0,0,0,0,0,0,0,0,0,0,0,0,0,0,0,0,0,0,0,0,0,0,0,0,0,0,0,0,0,0,0,0,0,0,0,0,0,0,0,0,0,0,0,0,0,0,0,0,0,0,0,0],"sum_hessian":[1.7921742E3,8.752521E2,9.169221E2,8.597067E1,7.8928143E2,4.6964938E2,4.4727277E2,3.0449177E1,5.5521492E1,1.8048578E2,6.0879565E2,1.1472782E2,3.5492157E2,1.25339424E2,3.2193335E2,1.421745E1,1.6231726E1,3.1539102E0,5.2367584E1,1.2998962E2,5.0496166E1,4.6059122E2,1.482044E2,2.3007862E1,9.1719955E1,6.91564E1,2.8576517E2,1.0496317E1,1.1484311E2,3.1881274E2,3.1205926E0,4.0532866E0,1.0164164E1,1.7107947E0,1.4520932E1,1.9231778E0,1.2307324E0,4.560522E0,4.780706E1,4.6935E1,8.305462E1,4.095352E1,9.542644E0,4.4327487E2,1.7316355E1,6.2105648E1,8.609876E1,1.6695227E1,6.312635E0,1.3969758E1,7.77502E1,5.2801693E1,1.6354706E1,1.350897E2,1.5067546E2,8.001812E0,2.4945052E0,7.0732117E0,1.077699E2,3.1409122E2,4.72154E0,1.9608787E0,1.1597139E0],"tree_param":{"num_deleted":"0","num_feature":"768","num_nodes":"63","size_leaf_vector":"1"}},{"base_weights":[-2.2259772E-4,4.3604094E-1,-7.745438E-1,-1.1952154E-1,8.204255E-1,-1.089708E0,-3.748287E-1,5.5279016E-1,-3.9104083E-1,1.1018057E0,4.4399816E-1,-1.142986E0,4.177629E-1,-8.7225235E-1,1.7214972E-1,-2.535464E-1,8.8215524E-1,-8.015342E-2,-9.195172E-1,5.357962E-1,1.223134E0,7.985968E-1,-8.7865174E-2,-1.2113167E0,-4.8545521E-1,9.624743E-1,-1.1545642E-1,-1.0960283E0,-2.5063634E-1,-2.4400696E-1,7.9556054E-1,-8.3505474E-2,5.5637877E-2,1.03091456E-1,-3.9704073E-2,3.9451923E-2,-5.367511E-2,-1.01259805E-1,8.083442E-2,-9.8519154E-2,7.127126E-2,1.25154E-1,-1.3826608E-2,9.351475E-2,-1.7642181E-2,7.149028E-2,-4.2901322E-2,5.67683E-2,-1.2223162E-1,1.1891841E-1,-8.812658E-2,-6.336877E-2,1.3288186E-1,-2.8497104E-2,-1.2078165E-1,-8.8049375E-2,4.6310227E-2,9.118347E-2,-5.2152306E-2,9.656631E-2,-9.7365595E-2],"categories":[],"categories_nodes":[],"categories_segments":[],"categories_sizes":[],"default_left":[0,0,0,0,0,0,0,0,0,0,0,0,0,0,0,0,0,0,0,0,0,0,0,0,0,0,0,0,0,0,0,0,0,0,0,0,0,0,0,0,0,0,0,0,0,0,0,0,0,0,0,0,0,0,0,0,0,0,0,0,0],"id":7,"left_children":[1,3,5,7,9,11,13,15,17,19,21,23,25,27,29,31,33,35,37,39,41,43,45,47,49,51,-1,53,55,57,59,-1,-1,-1,-1,-1,-1,-1,-1,-1,-1,-1,-1,-1,-1,-1,-1,-1,-1,-1,-1,-1,-1,-1,-1,-1,-1,-1,-1,-1,-1],"loss_changes":[5.893066E2,2.3838278E2,7.8789215E1,8.367286E1,6.937988E1,2.8667389E1,7.5974304E1,3.5263023E1,5.3527603E1,2.5220947E1,5.3602077E1,1.4655457E1,1.200017E1,2.0050705E1,3.484586E1,1.8851334E1,1.8277046E1,4.4968647E1,2.0237442E1,1.9078886E1,1.2142456E1,2.2851875E1,3.1648066E1,6.694763E0,2.332423E1,6.6824484E0,0E0,9.3701935E0,1.8378223E1,2.6413254E1,1.7102116E1,0E0,0E0,0E0,0E0,0E0,0E0,0E0,0E0,0E0,0E0,0E0,0E0,0E0,0E0,0E0,0E0,0E0,0E0,0E0,0E0,0E0,0E0,0E0,0E0,0E0,0E0,0E0,0E0,0E0,0E0],"parents":[2147483647,0,0,1,1,2,2,3,3,4,4,5,5,6,6,7,7,8,8,9,9,10,10,11,11,12,12,13,13,14,14,15,15,16,16,17,17,18,18,19,19,20,20,21,21,22,22,23,23,24,24,25,25,27,27,28,28,29,29,30,30],"right_children":[2,4,6,8,10,12,14,16,18,20,22,24,26,28,30,32,34,36,38,40,42,44,46,48,50,52,-1,54,56,58,60,-1,-1,-1,-1,-1,-1,-1,-1,-1,-1,-1,-1,-1,-1,-1,-1,-1,-1,-1,-1,-1,-1,-1,-1,-1,-1,-1,-1,-1,-1],"split_conditions":[4.3641633E-1,-1.6685368E-1,1.5920725E-1,-2.1264145E-1,-4.1558045E-1,7.7363206E-3,-2.8654516E-2,-1.5859429E-2,9.751319E-2,2.0983759E-1,1.6329715E-1,3.3500516E-1,-1.07163265E-1,2.2138782E-1,-1.9821699E0,3.7925416E-1,-1.3413171E-1,-2.0506832E-1,3.2018643E-2,1.7788674E-1,2.0497839E-1,7.485481E-2,-3.3693972E-1,-5.1346266E-1,-1.7613565E-3,-1.9142056E-1,-1.1545642E-1,-6.324118E-2,1.7478181E-1,3.1750965E-1,5.836556E-3,-8.3505474E-2,5.5637877E-2,1.03091456E-1,-3.9704073E-2,3.9451923E-2,-5.367511E-2,-1.01259805E-1,8.083442E-2,-9.8519154E-2,7.127126E-2,1.25154E-1,-1.3826608E-2,9.351475E-2,-1.7642181E-2,7.149028E-2,-4.2901322E-2,5.67683E-2,-1.2223162E-1,1.1891841E-1,-8.812658E-2,-6.336877E-2,1.3288186E-1,-2.8497104E-2,-1.2078165E-1,-8.8049375E-2,4.6310227E-2,9.118347E-2,-5.2152306E-2,9.656631E-2,-9.7365595E-2],"split_indices":[221,365,602,430,690,763,579,391,760,620,353,620,430,55,109,368,585,761,1,471,64,432,375,355,210,506,0,224,446,637,35,0,0,0,0,0,0,0,0,0,0,0,0,0,0,0,0,0,0,0,0,0,0,0,0,0,0,0,0,0,0],"split_type":[0,0,0,0,0,0,0,0,0,0,0,0,0,0,0,0,0,0,0,0,0,0,0,0,0,0,0,0,0,0,0,0,0,0,0,0,0,0,0,0,0,0,0,0,0,0,0,0,0,0,0,0,0,0,0,0,0,0,0,0,0],"sum_hessian":[1.7425013E3,1.1148282E3,6.2767316E2,4.561827E2,6.586455E2,3.499898E2,2.7768332E2,1.3093567E2,3.2524704E2,3.7580414E2,2.8284134E2,3.3827597E2,1.1713816E1,1.4511798E2,1.3256535E2,3.803944E1,9.2896225E1,2.0550566E2,1.1974139E2,6.729274E1,3.085114E2,1.6939949E2,1.1344185E2,3.056687E2,3.260728E1,8.987934E0,2.7258816E0,1.0614395E2,3.8974026E1,7.986213E1,5.270322E1,2.2123924E1,1.5915514E1,8.3392494E1,9.503728E0,1.00825165E2,1.046805E2,1.1401339E2,5.7280016E0,6.5356517E0,6.075709E1,3.0228485E2,6.2265496E0,1.4862549E2,2.0774E1,3.350483E1,7.993702E1,1.567324E0,3.0410138E2,5.8503866E0,2.6756895E1,1.5415676E0,7.446367E0,1.32876E1,9.285635E1,2.0579483E1,1.839454E1,1.50197735E1,6.484236E1,4.8494835E1,4.208384E0],"tree_param":{"num_deleted":"0","num_feature":"768","num_nodes":"61","size_leaf_vector":"1"}},{"base_weights":[-2.384468E-4,6.162329E-1,-4.8429546E-1,7.543829E-2,8.67897E-1,-1.0107701E-1,-9.4316405E-1,7.7643245E-1,-2.7072623E-1,2.3990437E-1,1.0385544E0,4.057714E-1,-5.00983E-1,-5.528003E-1,-1.1142386E0,8.90366E-1,-7.479508E-1,-6.68971E-1,2.4472491E-1,5.9982336E-1,-4.628895E-1,-1.1811881E-1,1.1070943E0,-5.832842E-1,7.004809E-1,4.118124E-1,-6.883514E-1,1.3493647E-1,-8.02755E-1,-1.1378825E0,2.5533038E-1,9.567446E-3,1.1150533E-1,-1.672448E-1,9.1224715E-2,-2.796267E-2,-1.2593925E-1,-2.4981095E-2,8.705111E-2,-4.741574E-2,8.3446994E-2,7.720373E-2,-7.234281E-2,6.664607E-2,-1.0326985E-1,5.265205E-2,1.1747732E-1,-9.659941E-2,3.0277941E-2,9.1956645E-2,-5.1315516E-2,-1.2047513E-2,1.2590079E-1,-1.2349228E-2,-8.883317E-2,-9.4494194E-2,6.915736E-2,-9.469743E-2,3.0209402E-2,-1.1564763E-1,3.914403E-2,1.1635293E-1,-9.578896E-2],"categories":[],"categories_nodes":[],"categories_segments":[],"categories_sizes":[],"default_left":[0,0,0,0,0,0,0,0,0,0,0,0,0,0,0,0,0,0,0,0,0,0,0,0,0,0,0,0,0,0,0,0,0,0,0,0,0,0,0,0,0,0,0,0,0,0,0,0,0,0,0,0,0,0,0,0,0,0,0,0,0,0,0],"id":8,"left_children":[1,3,5,7,9,11,13,15,17,19,21,23,25,27,29,31,33,35,37,39,41,43,45,47,49,51,53,55,57,59,61,-1,-1,-1,-1,-1,-1,-1,-1,-1,-1,-1,-1,-1,-1,-1,-1,-1,-1,-1,-1,-1,-1,-1,-1,-1,-1,-1,-1,-1,-1,-1,-1],"loss_changes":[5.0568155E2,1.0137625E2,1.668268E2,5.7914677E1,5.425348E1,1.05275024E2,2.8224579E1,1.4363857E1,3.2993664E1,2.8094326E1,3.1809174E1,6.720932E1,4.9917374E1,2.3070644E1,9.982056E0,1.3078171E1,1.0778183E1,2.044968E1,2.2016756E1,1.8832596E1,1.2723369E1,1.7376448E1,1.4207642E1,1.8318113E1,4.753926E1,2.2722162E1,2.7131508E1,2.2571396E1,1.5919659E1,8.823975E0,7.6108737E0,0E0,0E0,0E0,0E0,0E0,0E0,0E0,0E0,0E0,0E0,0E0,0E0,0E0,0E0,0E0,0E0,0E0,0E0,0E0,0E0,0E0,0E0,0E0,0E0,0E0,0E0,0E0,0E0,0E0,0E0,0E0,0E0],"parents":[2147483647,0,0,1,1,2,2,3,3,4,4,5,5,6,6,7,7,8,8,9,9,10,10,11,11,12,12,13,13,14,14,15,15,16,16,17,17,18,18,19,19,20,20,21,21,22,22,23,23,24,24,25,25,26,26,27,27,28,28,29,29,30,30],"right_children":[2,4,6,8,10,12,14,16,18,20,22,24,26,28,30,32,34,36,38,40,42,44,46,48,50,52,54,56,58,60,62,-1,-1,-1,-1,-1,-1,-1,-1,-1,-1,-1,-1,-1,-1,-1,-1,-1,-1,-1,-1,-1,-1,-1,-1,-1,-1,-1,-1,-1,-1,-1,-1],"split_conditions":[3.5519895E-1,1.687954E-1,-1.2152942E-1,-5.372708E-1,1.90993E-1,-1.8191485E-1,4.2662486E-1,5.9525084E-1,-1.24814324E-1,-1.1885228E-1,-3.4753525E-1,-2.878258E-1,3.8007595E-2,-8.574532E-2,4.308834E-1,2.4759157E-1,2.0995887E-1,-1.608355E-1,3.2342377E-1,9.559849E-2,-4.0160203E-1,2.1182844E-1,2.2493191E-1,7.7669576E-2,-3.9280793E-1,1.6830082E-1,2.9519373E-1,-5.347713E-1,-6.747095E-2,2.1149665E-3,1.9840322E-1,9.567446E-3,1.1150533E-1,-1.672448E-1,9.1224715E-2,-2.796267E-2,-1.2593925E-1,-2.4981095E-2,8.705111E-2,-4.741574E-2,8.3446994E-2,7.720373E-2,-7.234281E-2,6.664607E-2,-1.0326985E-1,5.265205E-2,1.1747732E-1,-9.659941E-2,3.0277941E-2,9.1956645E-2,-5.1315516E-2,-1.2047513E-2,1.2590079E-1,-1.2349228E-2,-8.883317E-2,-9.4494194E-2,6.915736E-2,-9.469743E-2,3.0209402E-2,-1.1564763E-1,3.914403E-2,1.1635293E-1,-9.578896E-2],"split_indices":[221,446,363,103,620,430,165,639,32,654,569,119,61,266,620,620,171,97,767,94,375,367,364,692,103,401,53,441,539,365,648,0,0,0,0,0,0,0,0,0,0,0,0,0,0,0,0,0,0,0,0,0,0,0,0,0,0,0,0,0,0,0,0],"split_type":[0,0,0,0,0,0,0,0,0,0,0,0,0,0,0,0,0,0,0,0,0,0,0,0,0,0,0,0,0,0,0,0,0,0,0,0,0,0,0,0,0,0,0,0,0,0,0,0,0,0,0,0,0,0,0,0,0,0,0,0,0,0,0],"sum_hessian":[1.6926019E3,7.4435486E2,9.48247E2,2.3680035E2,5.0755453E2,5.17382E2,4.30865E2,7.786939E1,1.5893095E2,1.0896957E2,3.9858496E2,2.2817456E2,2.8920746E2,1.3257722E2,2.9828775E2,7.284111E1,5.028281E0,8.9491066E1,6.943989E1,7.2160706E1,3.6808857E1,2.2256845E1,3.7632812E2,5.215645E1,1.7601811E2,4.905079E1,2.4015666E2,3.5462955E1,9.7114265E1,2.9339188E2,4.895875E0,1.6369612E1,5.64715E1,3.2250192E0,1.803262E0,5.481667E1,3.46744E1,3.9123123E1,3.0316767E1,1.2755922E1,5.9404785E1,6.0707736E0,3.0738085E1,1.2125867E1,1.0130979E1,4.020602E1,3.361221E2,3.6361103E1,1.5795346E1,1.4930743E2,2.6710678E1,3.0650848E1,1.8399939E1,6.3215973E1,1.7694069E2,1.1824938E1,2.363802E1,8.60277E1,1.1086563E1,2.901085E2,3.2833962E0,2.8233294E0,2.0725455E0],"tree_param":{"num_deleted":"0","num_feature":"768","num_nodes":"63","size_leaf_vector":"1"}},{"base_weights":[-1.71167E-4,-5.734954E-1,4.6931612E-1,1.2854246E-2,-8.92557E-1,-9.079423E-3,8.148846E-1,-6.487621E-1,4.2525455E-1,-1.0589662E0,-4.3810055E-1,5.6353E-1,-3.2886556E-1,1.0488982E0,2.9564664E-1,-1.1081487E0,-2.0040117E-1,-9.3645686E-1,6.370963E-1,-1.1177844E0,-3.0151692E-1,-8.396287E-1,1.9028183E-2,9.297328E-1,5.464413E-2,5.7654683E-2,-8.30313E-1,1.1261741E0,1.5194036E-1,-2.513319E-1,6.530072E-1,-1.2521675E-1,1.7911052E-2,-6.29078E-2,5.8116145E-2,1.0144683E-1,-1.1170345E-1,7.977253E-2,-6.668227E-2,-1.14275925E-1,1.8186485E-2,7.848201E-2,-7.629121E-2,4.0561106E-2,-9.977514E-2,3.7199926E-2,-8.992081E-2,-4.0115874E-2,1.0387897E-1,-1.1860664E-1,3.3060737E-2,-4.353898E-2,4.951307E-2,-9.637906E-2,5.329723E-2,1.1593487E-1,-3.1144718E-2,-4.473066E-2,1.297255E-1,-8.936336E-2,1.8934697E-2,-7.5417743E-3,9.5499635E-2],"categories":[],"categories_nodes":[],"categories_segments":[],"categories_sizes":[],"default_left":[0,0,0,0,0,0,0,0,0,0,0,0,0,0,0,0,0,0,0,0,0,0,0,0,0,0,0,0,0,0,0,0,0,0,0,0,0,0,0,0,0,0,0,0,0,0,0,0,0,0,0,0,0,0,0,0,0,0,0,0,0,0,0],"id":9,"left_children":[1,3,5,7,9,11,13,15,17,19,21,23,25,27,29,31,33,35,37,39,41,43,45,47,49,51,53,55,57,59,61,-1,-1,-1,-1,-1,-1,-1,-1,-1,-1,-1,-1,-1,-1,-1,-1,-1,-1,-1,-1,-1,-1,-1,-1,-1,-1,-1,-1,-1,-1,-1,-1],"loss_changes":[4.428139E2,1.3857414E2,1.4953206E2,7.175946E1,3.5811157E1,6.982658E1,6.3499725E1,2.0579731E1,4.732656E1,1.5273743E1,2.3926916E1,2.5415462E1,4.7468742E1,2.4892944E1,3.2326538E1,9.431236E0,1.7898468E1,8.958874E0,3.0018002E1,1.0749695E1,1.3940561E1,1.4064575E1,2.0395287E1,1.1941849E1,2.0335981E1,3.0218925E1,1.9904953E1,1.6231537E1,2.1059143E1,1.8777428E1,2.202523E1,0E0,0E0,0E0,0E0,0E0,0E0,0E0,0E0,0E0,0E0,0E0,0E0,0E0,0E0,0E0,0E0,0E0,0E0,0E0,0E0,0E0,0E0,0E0,0E0,0E0,0E0,0E0,0E0,0E0,0E0,0E0,0E0],"parents":[2147483647,0,0,1,1,2,2,3,3,4,4,5,5,6,6,7,7,8,8,9,9,10,10,11,11,12,12,13,13,14,14,15,15,16,16,17,17,18,18,19,19,20,20,21,21,22,22,23,23,24,24,25,25,26,26,27,27,28,28,29,29,30,30],"right_children":[2,4,6,8,10,12,14,16,18,20,22,24,26,28,30,32,34,36,38,40,42,44,46,48,50,52,54,56,58,60,62,-1,-1,-1,-1,-1,-1,-1,-1,-1,-1,-1,-1,-1,-1,-1,-1,-1,-1,-1,-1,-1,-1,-1,-1,-1,-1,-1,-1,-1,-1,-1,-1],"split_conditions":[1.2669434E-1,9.738602E-2,2.3956802E-1,2.0224729E-1,-7.627753E-2,1.09236434E-1,-7.0423773E-3,-3.0952537E-1,-2.8774253E-1,2.2675951E-1,1.824168E-1,-1.935917E-2,-1.2254968E0,4.3828122E-2,-2.1920297E0,5.4054314E-1,-2.0194148E-1,1.0064432E-1,2.690196E-1,6.0693608E-3,2.9663602E-1,-2.4204595E-1,1.9987117E-1,-2.3226099E-1,-2.926566E-1,-9.293794E-2,3.191622E-2,2.0880951E-1,7.0618376E-2,5.7847522E-2,-1.2987984E-2,-1.2521675E-1,1.7911052E-2,-6.29078E-2,5.8116145E-2,1.0144683E-1,-1.1170345E-1,7.977253E-2,-6.668227E-2,-1.14275925E-1,1.8186485E-2,7.848201E-2,-7.629121E-2,4.0561106E-2,-9.977514E-2,3.7199926E-2,-8.992081E-2,-4.0115874E-2,1.0387897E-1,-1.1860664E-1,3.3060737E-2,-4.353898E-2,4.951307E-2,-9.637906E-2,5.329723E-2,1.1593487E-1,-3.1144718E-2,-4.473066E-2,1.297255E-1,-8.936336E-2,1.8934697E-2,-7.5417743E-3,9.5499635E-2],"split_indices":[94,648,620,620,746,367,45,435,365,118,446,520,229,390,667,766,265,583,367,726,256,363,61,119,123,596,429,169,76,225,692,0,0,0,0,0,0,0,0,0,0,0,0,0,0,0,0,0,0,0,0,0,0,0,0,0,0,0,0,0,0,0,0],"split_type":[0,0,0,0,0,0,0,0,0,0,0,0,0,0,0,0,0,0,0,0,0,0,0,0,0,0,0,0,0,0,0,0,0,0,0,0,0,0,0,0,0,0,0,0,0,0,0,0,0,0,0,0,0,0,0,0,0,0,0,0,0,0,0],"sum_hessian":[1.6431184E3,7.396535E2,9.0346484E2,2.6098776E2,4.7866574E2,3.793193E2,5.2414557E2,9.9993866E1,1.6099391E2,3.4939645E2,1.2926927E2,1.3565431E2,2.43665E2,3.6060544E2,1.635401E2,4.8662823E1,5.133104E1,2.121353E1,1.3978038E2,3.2377835E2,2.561811E1,6.837445E1,6.0894817E1,7.840545E1,5.7248867E1,1.3810072E2,1.0556427E2,3.3176706E2,2.8838392E1,6.4742096E1,9.8798004E1,4.3790764E1,4.872058E0,3.3275158E1,1.8055883E1,1.4059546E0,1.9807573E1,1.2479515E2,1.4985231E1,3.1779218E2,5.9861736E0,7.42806E0,1.819005E1,7.527682E0,6.084677E1,4.4416096E1,1.647872E1,5.7353053E0,7.267014E1,9.816534E0,4.7432335E1,6.4929085E1,7.317164E1,9.641722E1,9.14705E0,3.2447308E2,7.293973E0,1.9332674E1,9.505718E0,2.5926155E1,3.8815945E1,2.9175161E1,6.962284E1],"tree_param":{"num_deleted":"0","num_feature":"768","num_nodes":"63","size_leaf_vector":"1"}},{"base_weights":[-2.7813096E-4,-4.4031426E-1,5.469144E-1,-8.8130015E-1,-3.6424283E-2,-3.9368248E-1,7.269859E-1,-1.0749396E0,-4.7076723E-1,-6.4489985E-1,2.1606694E-1,-7.3197836E-1,4.871779E-1,2.6198387E-1,9.7004473E-1,-1.0939716E0,9.207539E-1,-9.9234927E-1,-6.539412E-2,5.146049E-2,-9.164642E-1,8.508742E-1,-4.800584E-2,-1.0319762E0,1.2991801E-1,-4.2765412E-1,9.4538707E-1,-9.9332236E-2,7.201593E-1,-3.7582907E-1,1.016475E0,-1.1325284E-1,5.577304E-3,2.0783883E-2,1.1626877E-1,1.1342871E-2,-1.1156829E-1,-6.053217E-2,4.9043E-2,-4.7624554E-2,1.0656383E-1,8.959889E-2,-9.7617656E-2,-4.7765326E-2,1.02444135E-1,-5.145514E-2,2.8601496E-2,-1.0994329E-1,7.232282E-2,-3.343841E-2,1.2676983E-1,5.9995838E-2,-1.3423453E-1,1.3623933E-1,-2.8754799E-2,4.0450912E-2,-5.797227E-2,8.896997E-2,-5.5838477E-2,-1.12612486E-1,9.2344664E-2,6.76989E-2,1.1709311E-1],"categories":[],"categories_nodes":[],"categories_segments":[],"categories_sizes":[],"default_left":[0,0,0,0,0,0,0,0,0,0,0,0,0,0,0,0,0,0,0,0,0,0,0,0,0,0,0,0,0,0,0,0,0,0,0,0,0,0,0,0,0,0,0,0,0,0,0,0,0,0,0,0,0,0,0,0,0,0,0,0,0,0,0],"id":10,"left_children":[1,3,5,7,9,11,13,15,17,19,21,23,25,27,29,31,33,35,37,39,41,43,45,47,49,51,53,55,57,59,61,-1,-1,-1,-1,-1,-1,-1,-1,-1,-1,-1,-1,-1,-1,-1,-1,-1,-1,-1,-1,-1,-1,-1,-1,-1,-1,-1,-1,-1,-1,-1,-1],"loss_changes":[3.842434E2,1.5750682E2,1.20761246E2,3.3103912E1,7.12282E1,3.4608E1,6.7260345E1,1.1889374E1,2.8962084E1,2.5755928E1,5.4985825E1,2.171053E1,1.4025532E1,3.4244476E1,2.487323E1,1.2664337E1,3.188076E-1,8.304779E0,2.380069E1,2.1427473E1,1.1465576E1,2.27052E1,3.6366676E1,8.137451E0,1.2275074E1,1.1645381E1,1.1683348E1,2.8381569E1,2.0251617E1,1.44926815E1,1.9087067E1,0E0,0E0,0E0,0E0,0E0,0E0,0E0,0E0,0E0,0E0,0E0,0E0,0E0,0E0,0E0,0E0,0E0,0E0,0E0,0E0,0E0,0E0,0E0,0E0,0E0,0E0,0E0,0E0,0E0,0E0,0E0,0E0],"parents":[2147483647,0,0,1,1,2,2,3,3,4,4,5,5,6,6,7,7,8,8,9,9,10,10,11,11,12,12,13,13,14,14,15,15,16,16,17,17,18,18,19,19,20,20,21,21,22,22,23,23,24,24,25,25,26,26,27,27,28,28,29,29,30,30],"right_children":[2,4,6,8,10,12,14,16,18,20,22,24,26,28,30,32,34,36,38,40,42,44,46,48,50,52,54,56,58,60,62,-1,-1,-1,-1,-1,-1,-1,-1,-1,-1,-1,-1,-1,-1,-1,-1,-1,-1,-1,-1,-1,-1,-1,-1,-1,-1,-1,-1,-1,-1,-1,-1],"split_conditions":[-1.5473652E-1,-9.7970955E-2,1.1805271E-1,9.8603815E-2,1.4327334E-1,4.9765128E-1,2.2269495E-1,1.0353721E-1,1.6870719E-1,1.4261859E-2,-5.357458E-1,-4.926199E-2,-1.598749E-1,-1.7613576E-1,-3.1858054E-1,2.9467496E-1,-7.511373E-2,-3.679571E-1,7.191856E-2,9.9203594E-2,-9.168356E-3,1.5360108E-1,1.5904264E-1,2.0416851E-1,3.143303E-1,-8.9905314E-2,2.0079988E-1,9.845082E-2,-3.1266343E-2,1.4491354E-1,-2.2027369E0,-1.1325284E-1,5.577304E-3,2.0783883E-2,1.1626877E-1,1.1342871E-2,-1.1156829E-1,-6.053217E-2,4.9043E-2,-4.7624554E-2,1.0656383E-1,8.959889E-2,-9.7617656E-2,-4.7765326E-2,1.02444135E-1,-5.145514E-2,2.8601496E-2,-1.0994329E-1,7.232282E-2,-3.343841E-2,1.2676983E-1,5.9995838E-2,-1.3423453E-1,1.3623933E-1,-2.8754799E-2,4.0450912E-2,-5.797227E-2,8.896997E-2,-5.5838477E-2,-1.12612486E-1,9.2344664E-2,6.76989E-2,1.1709311E-1],"split_indices":[365,746,602,94,404,111,620,106,602,728,103,763,429,265,410,118,4,258,147,312,701,620,446,350,620,718,367,616,411,358,667,0,0,0,0,0,0,0,0,0,0,0,0,0,0,0,0,0,0,0,0,0,0,0,0,0,0,0,0,0,0,0,0],"split_type":[0,0,0,0,0,0,0,0,0,0,0,0,0,0,0,0,0,0,0,0,0,0,0,0,0,0,0,0,0,0,0,0,0,0,0,0,0,0,0,0,0,0,0,0,0,0,0,0,0,0,0,0,0,0,0,0,0,0,0,0,0,0,0],"sum_hessian":[1.5937979E3,8.835047E2,7.1029315E2,4.217913E2,4.6171344E2,1.1394088E2,5.963523E2,2.8550592E2,1.3628537E2,1.349485E2,3.2676492E2,8.2446266E1,3.1494608E1,2.0542548E2,3.9092682E2,2.8325647E2,2.2494502E0,5.896666E1,7.731871E1,3.8089024E1,9.685948E1,9.534412E1,2.314208E2,6.1012493E1,2.1433779E1,1.0532585E1,2.0962023E1,1.15290695E2,9.013478E1,1.2799958E1,3.7812686E2,2.7408017E2,9.176326E0,1.0409925E0,1.2084578E0,5.9249883E0,5.3041668E1,3.917503E1,3.814368E1,2.5402027E1,1.2686996E1,2.6426268E0,9.421685E1,1.0814583E1,8.452953E1,9.6330345E1,1.3509047E2,5.9114204E1,1.8982872E0,1.5723489E1,5.710289E0,5.122163E0,5.410423E0,1.5585617E1,5.3764057E0,5.6348953E1,5.8941746E1,7.98504E1,1.0284374E1,8.198702E0,4.6012564E0,1.199239E2,2.5820297E2],"tree_param":{"num_deleted":"0","num_feature":"768","num_nodes":"63","size_leaf_vector":"1"}},{"base_weights":[-9.188863E-5,3.3238015E-1,-6.420147E-1,-1.1921383E-1,7.218144E-1,-8.263422E-1,8.480623E-2,4.5275024E-1,-4.352186E-1,8.6812586E-1,-3.0537912E-1,-9.26332E-1,1.613327E-1,-8.048229E-1,3.1688833E-1,8.35893E-1,-1.1958673E-1,-9.396369E-3,-7.9907894E-1,1.017983E0,3.1149587E-1,7.359684E-1,-6.7685395E-1,-4.30626E-1,-1.0388224E0,1.1515797E0,-3.4013593E-1,1.11547224E-1,-1.1631267E0,-3.9126062E-1,6.6695076E-1,-6.4156495E-2,9.4976425E-2,-6.425814E-2,7.26231E-2,-8.2037106E-2,2.4628928E-2,-5.6060147E-2,-1.2297145E-1,1.0634853E-1,2.7170679E-2,-5.5070657E-2,5.3833473E-2,-1.10709004E-1,1.0104605E-1,6.188993E-3,-1.1005975E-1,-7.8790456E-2,4.1430637E-2,-1.0798847E-1,-1.7508386E-2,1.4415196E-1,-4.363386E-2,-7.099164E-2,1.04856946E-1,-1.3434516E-1,5.136739E-2,8.169974E-2,-8.509192E-2,-5.3884506E-2,9.1319144E-2],"categories":[],"categories_nodes":[],"categories_segments":[],"categories_sizes":[],"default_left":[0,0,0,0,0,0,0,0,0,0,0,0,0,0,0,0,0,0,0,0,0,0,0,0,0,0,0,0,0,0,0,0,0,0,0,0,0,0,0,0,0,0,0,0,0,0,0,0,0,0,0,0,0,0,0,0,0,0,0,0,0],"id":11,"left_children":[1,3,5,7,9,11,13,15,17,19,21,23,25,27,29,31,33,35,37,39,41,43,45,47,49,51,53,-1,55,57,59,-1,-1,-1,-1,-1,-1,-1,-1,-1,-1,-1,-1,-1,-1,-1,-1,-1,-1,-1,-1,-1,-1,-1,-1,-1,-1,-1,-1,-1,-1],"loss_changes":[3.3027533E2,1.7938115E2,7.081186E1,8.5676346E1,8.255884E1,4.1756042E1,2.2497444E1,3.711429E1,4.7270485E1,3.968506E1,2.7193483E1,2.089389E1,2.0047323E1,1.682778E1,2.161897E1,1.76409E1,3.0794952E1,2.9565435E1,1.6207138E1,1.2526306E1,2.047306E1,1.0540582E1,1.6153835E1,2.2210857E1,1.0849152E1,6.860203E0,1.4633909E1,0E0,6.5898457E0,1.687444E1,1.7720787E1,0E0,0E0,0E0,0E0,0E0,0E0,0E0,0E0,0E0,0E0,0E0,0E0,0E0,0E0,0E0,0E0,0E0,0E0,0E0,0E0,0E0,0E0,0E0,0E0,0E0,0E0,0E0,0E0,0E0,0E0],"parents":[2147483647,0,0,1,1,2,2,3,3,4,4,5,5,6,6,7,7,8,8,9,9,10,10,11,11,12,12,13,13,14,14,15,15,16,16,17,17,18,18,19,19,20,20,21,21,22,22,23,23,24,24,25,25,26,26,28,28,29,29,30,30],"right_children":[2,4,6,8,10,12,14,16,18,20,22,24,26,28,30,32,34,36,38,40,42,44,46,48,50,52,54,-1,56,58,60,-1,-1,-1,-1,-1,-1,-1,-1,-1,-1,-1,-1,-1,-1,-1,-1,-1,-1,-1,-1,-1,-1,-1,-1,-1,-1,-1,-1,-1,-1],"split_conditions":[1.4053866E-1,2.3956802E-1,1.787306E-1,-6.58506E-2,1.0980485E-1,2.1773234E-2,-1.8009862E-1,1.7179261E-1,1.0779973E-2,-1.8533693E-1,-3.9088735E-1,-1.0294808E-1,-1.231455E-1,-3.9869004E-1,-2.1245039E0,-2.9849717E-1,-4.7010656E-2,-1.6716275E-1,-1.2814282E-1,2.6249728E-1,7.329188E-2,1.2335397E-1,3.1064343E-1,1.5465604E-1,-2.3552906E-2,-1.7156766E-1,-1.3771741E-1,1.11547224E-1,4.4520268E-1,1.1120382E-1,-3.5316062E-1,-6.4156495E-2,9.4976425E-2,-6.425814E-2,7.26231E-2,-8.2037106E-2,2.4628928E-2,-5.6060147E-2,-1.2297145E-1,1.0634853E-1,2.7170679E-2,-5.5070657E-2,5.3833473E-2,-1.10709004E-1,1.0104605E-1,6.188993E-3,-1.1005975E-1,-7.8790456E-2,4.1430637E-2,-1.0798847E-1,-1.7508386E-2,1.4415196E-1,-4.363386E-2,-7.099164E-2,1.04856946E-1,-1.3434516E-1,5.136739E-2,8.169974E-2,-8.509192E-2,-5.3884506E-2,9.1319144E-2],"split_indices":[648,620,94,45,728,746,192,367,728,626,204,35,328,691,109,123,476,506,375,384,401,186,595,118,726,645,365,0,83,688,32,0,0,0,0,0,0,0,0,0,0,0,0,0,0,0,0,0,0,0,0,0,0,0,0,0,0,0,0,0,0],"split_type":[0,0,0,0,0,0,0,0,0,0,0,0,0,0,0,0,0,0,0,0,0,0,0,0,0,0,0,0,0,0,0,0,0,0,0,0,0,0,0,0,0,0,0,0,0,0,0,0,0,0,0,0,0,0,0,0,0,0,0,0,0],"sum_hessian":[1.5455272E3,1.0184975E3,5.270297E2,4.719319E2,5.465656E2,4.203011E2,1.0672863E2,1.6779416E2,3.0413773E2,4.785559E2,6.800973E1,3.817189E2,3.858218E1,2.1571562E1,8.515707E1,1.0023367E2,6.7560486E1,1.4060954E2,1.6352817E2,3.763936E2,1.02162315E2,1.7623878E1,5.0385845E1,7.149468E1,3.102242E2,1.253432E1,2.604786E1,3.0597768E0,1.8511784E1,2.8131516E1,5.702555E1,6.840851E0,9.339282E1,4.1895504E1,2.5664976E1,3.3175655E1,1.0743389E2,1.0672679E2,5.6801384E1,3.5436215E2,2.2031433E1,2.0982233E1,8.118008E1,1.8913441E0,1.5732534E1,1.8677649E1,3.1708199E1,5.0295002E1,2.1199684E1,2.9590652E2,1.4317702E1,1.0676991E1,1.8573282E0,2.0956432E1,5.091426E0,1.6893808E1,1.6179762E0,7.5384793E0,2.0593037E1,9.469051E0,4.75565E1],"tree_param":{"num_deleted":"0","num_feature":"768","num_nodes":"61","size_leaf_vector":"1"}},{"base_weights":[-1.9157316E-4,2.6728448E-1,-7.256935E-1,-1.2815715E-1,6.3916E-1,-8.8762736E-1,-2.071615E-1,-6.382651E-1,9.834295E-2,3.2232553E-1,9.525729E-1,-9.518055E-1,-1.4175685E-1,2.7477607E-1,-6.542837E-1,-9.4824874E-1,-2.0085761E-1,-3.979044E-1,3.4997103E-1,7.759817E-1,-4.5216285E-2,1.0827994E0,5.080632E-2,-5.555263E-1,-1.0525129E0,-5.351778E-1,1.3781487E0,-5.4888654E-1,7.5219077E-1,4.6533206E-1,-8.3595234E-1,-1.0608101E-1,7.7675856E-3,8.144979E-2,-3.8960587E-2,2.8628265E-2,-6.554355E-2,-1.2783128E-2,7.510152E-2,-4.8196167E-2,8.883362E-2,6.303428E-2,-3.3071805E-2,1.1134652E-1,-3.488883E-2,-7.879876E-2,7.7686444E-2,-8.437282E-2,4.381229E-2,-1.0701489E-1,4.192557E-2,-1.0286744E-1,3.647801E-2,-1.5675894E-3,1.7568654E-1,-8.505798E-2,7.351176E-2,-7.825239E-2,1.0548364E-1,1.0901301E-1,-7.130625E-2,2.6007002E-2,-1.0207876E-1],"categories":[],"categories_nodes":[],"categories_segments":[],"categories_sizes":[],"default_left":[0,0,0,0,0,0,0,0,0,0,0,0,0,0,0,0,0,0,0,0,0,0,0,0,0,0,0,0,0,0,0,0,0,0,0,0,0,0,0,0,0,0,0,0,0,0,0,0,0,0,0,0,0,0,0,0,0,0,0,0,0,0,0],"id":12,"left_children":[1,3,5,7,9,11,13,15,17,19,21,23,25,27,29,31,33,35,37,39,41,43,45,47,49,51,53,55,57,59,61,-1,-1,-1,-1,-1,-1,-1,-1,-1,-1,-1,-1,-1,-1,-1,-1,-1,-1,-1,-1,-1,-1,-1,-1,-1,-1,-1,-1,-1,-1,-1,-1],"loss_changes":[2.910564E2,1.6123283E2,3.3740494E1,6.152192E1,5.578975E1,1.4587845E1,2.1178839E1,2.2005165E1,4.624546E1,4.712831E1,3.3235535E1,1.0710266E1,1.6011137E1,1.9131899E1,1.073118E1,1.1114677E1,1.3572195E1,2.2159618E1,4.7145332E1,1.8302261E1,3.0484444E1,1.126178E1,2.3037117E1,1.7399757E1,6.2772217E0,9.706713E0,2.9476013E0,7.6157103E0,1.5018759E1,6.4766927E0,9.200584E0,0E0,0E0,0E0,0E0,0E0,0E0,0E0,0E0,0E0,0E0,0E0,0E0,0E0,0E0,0E0,0E0,0E0,0E0,0E0,0E0,0E0,0E0,0E0,0E0,0E0,0E0,0E0,0E0,0E0,0E0,0E0,0E0],"parents":[2147483647,0,0,1,1,2,2,3,3,4,4,5,5,6,6,7,7,8,8,9,9,10,10,11,11,12,12,13,13,14,14,15,15,16,16,17,17,18,18,19,19,20,20,21,21,22,22,23,23,24,24,25,25,26,26,27,27,28,28,29,29,30,30],"right_children":[2,4,6,8,10,12,14,16,18,20,22,24,26,28,30,32,34,36,38,40,42,44,46,48,50,52,54,56,58,60,62,-1,-1,-1,-1,-1,-1,-1,-1,-1,-1,-1,-1,-1,-1,-1,-1,-1,-1,-1,-1,-1,-1,-1,-1,-1,-1,-1,-1,-1,-1,-1,-1],"split_conditions":[4.710168E-1,-1.5473652E-1,1.4298874E-1,-2.9273406E-1,-2.6932325E0,9.7335175E-2,-7.913624E-3,1.2669434E-1,-2.8558977E0,2.703958E-1,1.6589017E-1,-1.4929106E-2,7.498997E-2,-2.560263E-1,-3.3252594E-1,1.1064008E-2,-1.0365613E-1,-2.6847604E-1,-2.078903E-1,-3.8890266E-1,-1.3070912E0,2.6431012E-1,-2.1286388E-1,4.856946E-1,4.791002E-1,-2.6666662E-1,-4.4504084E-2,-2.4782114E0,-3.9957544E-1,-2.598539E-1,-2.3870809E-2,-1.0608101E-1,7.7675856E-3,8.144979E-2,-3.8960587E-2,2.8628265E-2,-6.554355E-2,-1.2783128E-2,7.510152E-2,-4.8196167E-2,8.883362E-2,6.303428E-2,-3.3071805E-2,1.1134652E-1,-3.488883E-2,-7.879876E-2,7.7686444E-2,-8.437282E-2,4.381229E-2,-1.0701489E-1,4.192557E-2,-1.0286744E-1,3.647801E-2,-1.5675894E-3,1.7568654E-1,-8.505798E-2,7.351176E-2,-7.825239E-2,1.0548364E-1,1.0901301E-1,-7.130625E-2,2.6007002E-2,-1.0207876E-1],"split_indices":[221,365,479,365,273,421,266,94,273,221,439,728,692,365,622,40,317,561,25,531,229,720,90,111,55,90,177,273,232,264,24,0,0,0,0,0,0,0,0,0,0,0,0,0,0,0,0,0,0,0,0,0,0,0,0,0,0,0,0,0,0,0,0],"split_type":[0,0,0,0,0,0,0,0,0,0,0,0,0,0,0,0,0,0,0,0,0,0,0,0,0,0,0,0,0,0,0,0,0,0,0,0,0,0,0,0,0,0,0,0,0,0,0,0,0,0,0,0,0,0,0,0,0,0,0,0,0,0,0],"sum_hessian":[1.4978706E3,1.0948542E3,4.030163E2,5.3093195E2,5.639223E2,3.065661E2,9.6450195E1,1.6269763E2,3.682343E2,2.8143915E2,2.824832E2,2.8202338E2,2.4542702E1,4.6603428E1,4.9846767E1,9.4534584E1,6.816305E1,1.236995E2,2.445348E2,1.2546574E2,1.559734E2,2.4666139E2,3.5821796E1,5.846854E1,2.2355484E2,2.0010864E1,4.531838E0,1.7045635E1,2.9557793E1,6.7409782E0,4.310579E1,8.515737E1,9.37721E0,1.016516E1,5.7997887E1,3.3797493E1,8.990201E1,1.1189948E2,1.3263533E2,1.0017555E1,1.1544818E2,4.5976112E1,1.09997284E2,2.4170647E2,4.9549165E0,1.6580978E1,1.924082E1,4.5439865E1,1.3028675E1,2.211774E2,2.3774452E0,1.2831576E1,7.179287E0,1.1730748E0,3.3587632E0,1.4075883E1,2.9697528E0,4.6075115E0,2.4950281E1,4.454209E0,2.2867694E0,6.1616817E0,3.694411E1],"tree_param":{"num_deleted":"0","num_feature":"768","num_nodes":"63","size_leaf_vector":"1"}},{"base_weights":[-1.1108079E-4,5.978969E-1,-2.8922555E-1,-5.239977E-1,7.102628E-1,-8.1108737E-1,-3.650999E-2,1.8473147E-1,-1.1771156E0,-1.6963205E-1,8.241804E-1,2.764397E-1,-8.9147156E-1,-3.5640764E-1,3.181122E-1,6.9606507E-1,-8.5792357E-1,-1.316537E0,9.8188065E-2,5.740135E-1,-6.009728E-1,4.9761394E-1,1.0411397E0,-6.174256E-1,8.660137E-1,-9.6006066E-1,-4.870783E-2,-6.5101784E-1,6.592909E-2,5.3738725E-1,-3.4944153E-1,1.05949E-1,-6.57457E-2,4.420277E-2,-1.4122136E-1,-1.3947044E-1,1.9728316E-3,7.416386E-2,-6.4614125E-2,-6.999662E-2,9.246626E-2,-1.073763E-1,2.22458E-2,-3.6499966E-2,6.913867E-2,-3.5457782E-2,1.0681641E-1,8.0072716E-2,-9.226485E-2,1.10924676E-1,-9.264462E-2,-1.039238E-1,-3.2383453E-2,9.192761E-2,-6.264399E-2,-8.892342E-2,-2.802593E-2,-4.271602E-2,4.6864256E-2,6.872751E-2,-2.5723694E-2,-5.3664412E-2,8.4400944E-2],"categories":[],"categories_nodes":[],"categories_segments":[],"categories_sizes":[],"default_left":[0,0,0,0,0,0,0,0,0,0,0,0,0,0,0,0,0,0,0,0,0,0,0,0,0,0,0,0,0,0,0,0,0,0,0,0,0,0,0,0,0,0,0,0,0,0,0,0,0,0,0,0,0,0,0,0,0,0,0,0,0,0,0],"id":13,"left_children":[1,3,5,7,9,11,13,15,17,19,21,23,25,27,29,31,33,35,37,39,41,43,45,47,49,51,53,55,57,59,61,-1,-1,-1,-1,-1,-1,-1,-1,-1,-1,-1,-1,-1,-1,-1,-1,-1,-1,-1,-1,-1,-1,-1,-1,-1,-1,-1,-1,-1,-1,-1,-1],"loss_changes":[2.5151234E2,6.0138367E1,1.2929861E2,2.0462578E1,4.3377563E1,2.8211746E1,7.518248E1,1.2240956E1,4.200489E0,1.64714E1,2.6553406E1,1.254022E1,1.7185593E1,4.3389065E1,4.6203545E1,8.176258E0,6.125081E0,2.1907234E0,2.0056362E0,9.120415E0,1.2816473E1,2.6066029E1,9.003174E0,4.9105206E0,7.1938524E0,1.3548019E1,1.371221E1,1.7883911E1,2.8807188E1,2.840792E1,1.7954206E1,0E0,0E0,0E0,0E0,0E0,0E0,0E0,0E0,0E0,0E0,0E0,0E0,0E0,0E0,0E0,0E0,0E0,0E0,0E0,0E0,0E0,0E0,0E0,0E0,0E0,0E0,0E0,0E0,0E0,0E0,0E0,0E0],"parents":[2147483647,0,0,1,1,2,2,3,3,4,4,5,5,6,6,7,7,8,8,9,9,10,10,11,11,12,12,13,13,14,14,15,15,16,16,17,17,18,18,19,19,20,20,21,21,22,22,23,23,24,24,25,25,26,26,27,27,28,28,29,29,30,30],"right_children":[2,4,6,8,10,12,14,16,18,20,22,24,26,28,30,32,34,36,38,40,42,44,46,48,50,52,54,56,58,60,62,-1,-1,-1,-1,-1,-1,-1,-1,-1,-1,-1,-1,-1,-1,-1,-1,-1,-1,-1,-1,-1,-1,-1,-1,-1,-1,-1,-1,-1,-1,-1,-1],"split_conditions":[1.09236434E-1,-1.6779038E-1,-1.3695836E-1,6.791293E-2,1.0447028E-1,1.3244781E-1,2.3956802E-1,4.2504195E-2,2.0947981E-1,6.660799E-2,-1.9789386E0,-1.4708216E-1,2.5621125E-1,-2.6177022E-1,9.499289E-2,-2.5417793E-1,9.475472E-3,4.288287E-2,2.275807E-1,6.854589E-2,1.2983744E-1,1.00459635E-1,-5.636228E-1,2.7878034E-1,2.8526692E-2,1.8734427E-1,-3.591344E-2,1.4712977E-1,1.7737427E-1,2.1273237E-1,-1.1705034E-1,1.05949E-1,-6.57457E-2,4.420277E-2,-1.4122136E-1,-1.3947044E-1,1.9728316E-3,7.416386E-2,-6.4614125E-2,-6.999662E-2,9.246626E-2,-1.073763E-1,2.22458E-2,-3.6499966E-2,6.913867E-2,-3.5457782E-2,1.0681641E-1,8.0072716E-2,-9.226485E-2,1.10924676E-1,-9.264462E-2,-1.039238E-1,-3.2383453E-2,9.192761E-2,-6.264399E-2,-8.892342E-2,-2.802593E-2,-4.271602E-2,4.6864256E-2,6.872751E-2,-2.5723694E-2,-5.3664412E-2,8.4400944E-2],"split_indices":[367,228,746,704,404,463,620,323,401,238,109,689,118,90,728,534,591,376,277,15,85,242,383,302,607,94,45,118,446,648,569,0,0,0,0,0,0,0,0,0,0,0,0,0,0,0,0,0,0,0,0,0,0,0,0,0,0,0,0,0,0,0,0],"split_type":[0,0,0,0,0,0,0,0,0,0,0,0,0,0,0,0,0,0,0,0,0,0,0,0,0,0,0,0,0,0,0,0,0,0,0,0,0,0,0,0,0,0,0,0,0,0,0,0,0,0,0,0,0,0,0,0,0,0,0,0,0,0,0],"sum_hessian":[1.4527302E3,4.730988E2,9.796314E2,4.273696E1,4.3036182E2,3.1889612E2,6.607353E2,2.0839828E1,2.1897133E1,4.9274982E1,3.8108685E2,2.1780886E1,2.9711523E2,3.4737244E2,3.1336282E2,1.4205601E1,6.6342278E0,1.9710018E1,2.187113E0,1.7967558E1,3.1307425E1,1.5343323E2,2.2765361E2,8.63776E0,1.31431265E1,2.7462543E2,2.2489822E1,2.0431003E2,1.4306241E2,2.360283E2,7.733453E1,1.1369965E1,2.8356361E0,2.0437195E0,4.5905085E0,1.8579445E1,1.1305735E0,1.1749868E0,1.0121263E0,3.6629846E0,1.4304572E1,1.969507E1,1.1612354E1,2.7982141E1,1.2545109E2,4.093947E0,2.2355968E2,1.2422934E0,7.395467E0,1.1908348E1,1.234778E0,2.4366791E2,3.0957514E1,8.184911E0,1.4304912E1,1.2353749E2,8.0772545E1,6.428727E1,7.877514E1,1.9868582E2,3.7342476E1,6.732448E1,1.0010054E1],"tree_param":{"num_deleted":"0","num_feature":"768","num_nodes":"63","size_leaf_vector":"1"}},{"base_weights":[-3.331112E-4,-5.9615296E-1,2.6500702E-1,-8.9618653E-1,-1.9714122E-1,7.5287455E-1,1.5140523E-3,-9.7465E-1,-2.1394065E-2,1.3742805E-1,-7.164863E-1,8.97423E-1,-2.7529514E-1,6.6598034E-1,-2.2244324E-1,-9.9598265E-1,9.715114E-2,-3.273331E-1,1.4619039E-1,-2.5308833E-1,6.633786E-1,-1.9316235E-1,-1.0301131E0,4.9083686E-1,1.0460436E0,-7.202212E-1,4.3732345E-1,8.177333E-1,-1.4333877E-1,-6.780749E-1,-1.8070611E-3,9.136192E-2,-1.0146661E-1,6.670483E-2,-8.525875E-2,6.2238444E-2,-7.116801E-2,-6.8650976E-2,9.226536E-2,1.0283158E-1,-6.5770835E-2,9.964295E-2,-1.11639045E-1,7.144078E-2,-5.1752664E-2,4.949572E-2,1.135332E-1,4.7451377E-2,-1.0238546E-1,-9.555902E-2,8.2506336E-2,2.9680774E-2,9.9572495E-2,9.034875E-2,-9.005289E-2,2.503913E-2,-7.785419E-2,-5.382348E-2,2.0715192E-2],"categories":[],"categories_nodes":[],"categories_segments":[],"categories_sizes":[],"default_left":[0,0,0,0,0,0,0,0,0,0,0,0,0,0,0,0,0,0,0,0,0,0,0,0,0,0,0,0,0,0,0,0,0,0,0,0,0,0,0,0,0,0,0,0,0,0,0,0,0,0,0,0,0,0,0,0,0,0,0],"id":14,"left_children":[1,3,5,7,9,11,13,15,17,19,21,23,25,27,29,31,-1,33,-1,35,37,39,41,43,45,47,49,51,53,55,57,-1,-1,-1,-1,-1,-1,-1,-1,-1,-1,-1,-1,-1,-1,-1,-1,-1,-1,-1,-1,-1,-1,-1,-1,-1,-1,-1,-1],"loss_changes":[2.231535E2,5.189006E1,1.2554062E2,1.6999313E1,3.2756035E1,5.1146576E1,9.4661835E1,1.0414032E1,1.0204685E1,2.3818584E1,1.1913845E1,1.7644974E1,1.3942045E1,1.9811363E1,4.7827072E1,8.974518E0,0E0,1.0275749E1,0E0,2.726474E1,1.7902838E1,1.7067123E1,9.140396E0,1.8928846E1,1.0222809E1,1.0221267E1,1.0046675E1,1.2238731E1,2.1557758E1,1.4673805E1,3.615426E1,0E0,0E0,0E0,0E0,0E0,0E0,0E0,0E0,0E0,0E0,0E0,0E0,0E0,0E0,0E0,0E0,0E0,0E0,0E0,0E0,0E0,0E0,0E0,0E0,0E0,0E0,0E0,0E0],"parents":[2147483647,0,0,1,1,2,2,3,3,4,4,5,5,6,6,7,7,8,8,9,9,10,10,11,11,12,12,13,13,14,14,15,15,17,17,19,19,20,20,21,21,22,22,23,23,24,24,25,25,26,26,27,27,28,28,29,29,30,30],"right_children":[2,4,6,8,10,12,14,16,18,20,22,24,26,28,30,32,-1,34,-1,36,38,40,42,44,46,48,50,52,54,56,58,-1,-1,-1,-1,-1,-1,-1,-1,-1,-1,-1,-1,-1,-1,-1,-1,-1,-1,-1,-1,-1,-1,-1,-1,-1,-1,-1,-1],"split_conditions":[6.929085E-2,-1.03711456E-1,-1.9868723E-1,2.5787464E-1,-1.1346066E-1,2.4912225E-1,2.4810074E-1,1.0658872E-1,4.9250424E-1,-1.0578209E-1,3.5939673E-1,-1.3766941E-1,-5.6220964E-2,-9.093648E-2,1.4327334E-1,-3.7123775E-1,9.715114E-2,-3.731704E-1,1.4619039E-1,3.598376E-2,-1.3379742E-1,-1.5635419E-1,9.291897E-3,-4.634024E-2,4.0845107E-2,-7.902308E-2,-5.54564E0,-1.4514199E-1,-3.4322693E0,1.3244781E-1,1.9834468E-2,9.136192E-2,-1.0146661E-1,6.670483E-2,-8.525875E-2,6.2238444E-2,-7.116801E-2,-6.8650976E-2,9.226536E-2,1.0283158E-1,-6.5770835E-2,9.964295E-2,-1.11639045E-1,7.144078E-2,-5.1752664E-2,4.949572E-2,1.135332E-1,4.7451377E-2,-1.0238546E-1,-9.555902E-2,8.2506336E-2,2.9680774E-2,9.9572495E-2,9.034875E-2,-9.005289E-2,2.503913E-2,-7.785419E-2,-5.382348E-2,2.0715192E-2],"split_indices":[94,746,430,118,430,384,221,106,477,506,595,506,746,654,404,16,0,622,0,704,518,466,353,568,515,317,752,750,308,463,479,0,0,0,0,0,0,0,0,0,0,0,0,0,0,0,0,0,0,0,0,0,0,0,0,0,0,0,0],"split_type":[0,0,0,0,0,0,0,0,0,0,0,0,0,0,0,0,0,0,0,0,0,0,0,0,0,0,0,0,0,0,0,0,0,0,0,0,0,0,0,0,0,0,0,0,0,0,0,0,0,0,0,0,0,0,0,0,0,0,0],"sum_hessian":[1.4095167E3,4.3391534E2,9.756014E2,2.4696559E2,1.8694977E2,3.4148016E2,6.341212E2,2.2653284E2,2.043275E1,1.1414887E2,7.2800896E1,2.9950104E2,4.1979134E1,1.5935422E2,4.74767E2,2.2455959E2,1.9732496E0,1.758505E1,2.8477006E0,6.580655E1,4.8342323E1,2.7885874E1,4.4915024E1,8.132375E1,2.1817729E2,2.583702E1,1.614211E1,1.3418349E2,2.5170734E1,1.5421898E2,3.20548E2,1.7116805E0,2.228479E2,5.984876E0,1.1600175E1,2.2498575E1,4.3307972E1,7.5236106E0,4.0818714E1,7.3489466E0,2.0536928E1,1.4033353E0,4.351169E1,6.680377E1,1.4519984E1,3.133311E1,1.8684418E2,5.1216383E0,2.0715384E1,3.196068E0,1.2946042E1,3.485153E1,9.9331955E1,1.0483682E1,1.4687052E1,1.4912523E1,1.3930646E2,8.94195E1,2.3112851E2],"tree_param":{"num_deleted":"0","num_feature":"768","num_nodes":"59","size_leaf_vector":"1"}},{"base_weights":[3.257511E-5,2.4468304E-1,-5.849674E-1,-8.2407594E-2,6.250557E-1,-8.7705266E-1,-2.3807852E-1,-3.711462E-1,3.328068E-1,8.39504E-1,3.879189E-2,-9.1181517E-1,6.9194686E-1,-6.0147357E-1,1.8707007E-1,-1.9030878E-1,-1.0473298E0,7.3097575E-1,-8.305128E-2,-1.11948475E-1,9.412098E-1,-6.918282E-1,3.2606485E-1,-1.357289E-1,-9.68528E-1,1.3335891E-1,-7.1931735E-2,-7.944111E-1,1.68331E-1,5.756586E-1,-3.9431742E-1,-4.457316E-2,3.2561574E-2,-1.1377382E-1,1.8523166E-2,-4.1761298E-2,9.087181E-2,4.145057E-2,-4.715339E-2,-7.2353296E-2,5.470683E-2,-7.4353285E-2,9.7266786E-2,-8.47293E-2,7.9854555E-2,-1.2242063E-2,8.00823E-2,-1.1175187E-1,5.3034324E-2,8.167035E-2,-9.89214E-2,2.9130453E-2,-9.865365E-2,-1.1034834E-1,7.011264E-2,8.254234E-2,-3.4191698E-2,-8.884097E-2,2.3042124E-2],"categories":[],"categories_nodes":[],"categories_segments":[],"categories_sizes":[],"default_left":[0,0,0,0,0,0,0,0,0,0,0,0,0,0,0,0,0,0,0,0,0,0,0,0,0,0,0,0,0,0,0,0,0,0,0,0,0,0,0,0,0,0,0,0,0,0,0,0,0,0,0,0,0,0,0,0,0,0,0],"id":15,"left_children":[1,3,5,7,9,11,13,15,17,19,21,23,25,27,29,31,33,35,37,39,41,43,45,47,49,-1,-1,51,53,55,57,-1,-1,-1,-1,-1,-1,-1,-1,-1,-1,-1,-1,-1,-1,-1,-1,-1,-1,-1,-1,-1,-1,-1,-1,-1,-1,-1,-1],"loss_changes":[1.9591518E2,1.2014078E2,4.0690628E1,6.2446495E1,5.6087723E1,1.2563095E1,2.8832348E1,3.73517E1,3.5453697E1,3.1727417E1,2.5537733E1,9.307709E0,5.76807E0,1.5054836E1,1.975333E1,3.2235367E1,7.4067764E0,2.269321E1,2.0578157E1,1.3475276E1,1.6375305E1,8.636929E0,1.8673927E1,1.0903624E1,8.182343E0,0E0,0E0,1.708004E1,1.4975346E1,1.224791E1,1.1076004E1,0E0,0E0,0E0,0E0,0E0,0E0,0E0,0E0,0E0,0E0,0E0,0E0,0E0,0E0,0E0,0E0,0E0,0E0,0E0,0E0,0E0,0E0,0E0,0E0,0E0,0E0,0E0,0E0],"parents":[2147483647,0,0,1,1,2,2,3,3,4,4,5,5,6,6,7,7,8,8,9,9,10,10,11,11,12,12,13,13,14,14,15,15,16,16,17,17,18,18,19,19,20,20,21,21,22,22,23,23,24,24,27,27,28,28,29,29,30,30],"right_children":[2,4,6,8,10,12,14,16,18,20,22,24,26,28,30,32,34,36,38,40,42,44,46,48,50,-1,-1,52,54,56,58,-1,-1,-1,-1,-1,-1,-1,-1,-1,-1,-1,-1,-1,-1,-1,-1,-1,-1,-1,-1,-1,-1,-1,-1,-1,-1,-1,-1],"split_conditions":[1.0650012E-1,2.58046E-1,3.259752E-3,-1.91268E-1,-3.3009127E-1,-2.821656E-1,4.414976E-1,1.3388978E-1,-4.5658287E-2,-2.7446675E-1,-2.9434845E-1,-1.6435557E-3,-6.6415374E-3,2.2919461E-1,-1.1685604E-1,2.2689657E-1,4.404497E-3,-1.983686E-1,-7.359286E-3,2.685551E-1,-1.64014E-1,1.2335833E-1,-2.6995687E0,-8.406897E-2,-3.3159742E-1,1.3335891E-1,-7.1931735E-2,1.2483093E-1,-1.945196E-1,3.1983376E-1,1.1591574E-1,-4.457316E-2,3.2561574E-2,-1.1377382E-1,1.8523166E-2,-4.1761298E-2,9.087181E-2,4.145057E-2,-4.715339E-2,-7.2353296E-2,5.470683E-2,-7.4353285E-2,9.7266786E-2,-8.47293E-2,7.9854555E-2,-1.2242063E-2,8.00823E-2,-1.1175187E-1,5.3034324E-2,8.167035E-2,-9.89214E-2,2.9130453E-2,-9.865365E-2,-1.1034834E-1,7.011264E-2,8.254234E-2,-3.4191698E-2,-8.884097E-2,2.3042124E-2],"split_indices":[169,620,579,265,690,608,662,24,45,365,133,648,452,60,607,508,48,408,279,130,354,397,273,764,253,0,0,88,750,139,72,0,0,0,0,0,0,0,0,0,0,0,0,0,0,0,0,0,0,0,0,0,0,0,0,0,0,0,0],"split_type":[0,0,0,0,0,0,0,0,0,0,0,0,0,0,0,0,0,0,0,0,0,0,0,0,0,0,0,0,0,0,0,0,0,0,0,0,0,0,0,0,0,0,0,0,0,0,0,0,0,0,0,0,0,0,0,0,0,0,0],"sum_hessian":[1.3668824E3,9.642212E2,4.0266132E2,5.188415E2,4.4537967E2,2.1776869E2,1.8489261E2,3.0609222E2,2.127493E2,3.2578094E2,1.1959874E2,2.1345819E2,4.3104963E0,9.946249E1,8.543013E1,2.4251567E2,6.3576546E1,1.08299095E2,1.04450195E2,3.1451647E1,2.9432928E2,3.3356087E1,8.624265E1,1.47673645E1,1.9869083E2,3.0010738E0,1.3094221E0,7.950423E1,1.9958256E1,5.1211304E1,3.4218826E1,1.6230038E2,8.021528E1,5.9303555E1,4.27299E0,1.4332368E1,9.396673E1,4.576665E1,5.8683548E1,1.6262102E1,1.5189546E1,4.9801683E0,2.8934912E2,3.0596025E1,2.7600613E0,4.4730053E1,4.15126E1,5.6950665E0,9.072298E0,1.8351392E0,1.968557E2,1.187597E1,6.762826E1,5.576263E0,1.4381993E1,4.033305E1,1.0878256E1,1.887162E1,1.5347205E1],"tree_param":{"num_deleted":"0","num_feature":"768","num_nodes":"59","size_leaf_vector":"1"}},{"base_weights":[-4.342885E-5,-3.18517E-1,4.0863585E-1,-7.044608E-1,-3.0332847E-2,8.752661E-2,7.712471E-1,-8.809405E-1,-3.042639E-1,2.5856915E-1,-4.0256044E-1,6.8563837E-1,-1.8379283E-1,8.2734233E-1,-7.192413E-1,-9.396678E-1,5.304282E-1,-5.3245455E-1,3.20457E-1,-2.4333124E-1,5.821764E-1,4.1544452E-1,-5.7910854E-1,-2.6134914E-1,8.7116385E-1,1.9881041E-1,-5.68023E-1,8.8739043E-1,-4.484958E-1,8.232717E-2,-1.2131721E0,4.3422863E-2,-9.748691E-2,-4.215455E-2,1.2702142E-1,-4.751768E-3,-9.2781104E-2,1.11364536E-1,-2.0779457E-2,2.791811E-2,-5.7190802E-2,-2.6750758E-2,7.54777E-2,7.6699875E-2,-6.613703E-2,-1.7151037E-2,-7.815014E-2,4.5542564E-2,-1.12484686E-1,1.0002631E-1,-1.345816E-3,6.438506E-2,-1.728209E-2,-9.636907E-3,-8.810388E-2,2.0369096E-2,9.926822E-2,-1.2763035E-1,3.6735516E-2,-1.4830206E-1,3.5790805E-2],"categories":[],"categories_nodes":[],"categories_segments":[],"categories_sizes":[],"default_left":[0,0,0,0,0,0,0,0,0,0,0,0,0,0,0,0,0,0,0,0,0,0,0,0,0,0,0,0,0,0,0,0,0,0,0,0,0,0,0,0,0,0,0,0,0,0,0,0,0,0,0,0,0,0,0,0,0,0,0,0,0],"id":16,"left_children":[1,3,5,7,9,11,13,15,17,19,21,23,25,27,29,31,33,35,37,39,41,43,45,47,49,51,53,55,57,-1,59,-1,-1,-1,-1,-1,-1,-1,-1,-1,-1,-1,-1,-1,-1,-1,-1,-1,-1,-1,-1,-1,-1,-1,-1,-1,-1,-1,-1,-1,-1],"loss_changes":[1.729961E2,8.3065285E1,6.771569E1,2.2283295E1,4.6208E1,5.0410934E1,2.3443329E1,1.8821152E1,1.4318368E1,3.944511E1,2.735295E1,1.7253822E1,3.1566174E1,2.0610275E1,8.958072E0,1.0704788E1,7.2048163E0,1.39646225E1,1.1618343E1,1.6567154E1,2.182212E1,1.3343554E1,1.2638493E1,1.0814298E1,9.294281E0,1.7964539E1,1.5713608E1,1.7960663E1,8.926707E0,0E0,4.0568867E0,0E0,0E0,0E0,0E0,0E0,0E0,0E0,0E0,0E0,0E0,0E0,0E0,0E0,0E0,0E0,0E0,0E0,0E0,0E0,0E0,0E0,0E0,0E0,0E0,0E0,0E0,0E0,0E0,0E0,0E0],"parents":[2147483647,0,0,1,1,2,2,3,3,4,4,5,5,6,6,7,7,8,8,9,9,10,10,11,11,12,12,13,13,14,14,15,15,16,16,17,17,18,18,19,19,20,20,21,21,22,22,23,23,24,24,25,25,26,26,27,27,28,28,30,30],"right_children":[2,4,6,8,10,12,14,16,18,20,22,24,26,28,30,32,34,36,38,40,42,44,46,48,50,52,54,56,58,-1,60,-1,-1,-1,-1,-1,-1,-1,-1,-1,-1,-1,-1,-1,-1,-1,-1,-1,-1,-1,-1,-1,-1,-1,-1,-1,-1,-1,-1,-1,-1],"split_conditions":[-1.5473652E-1,-1.0528707E-1,-1.16189465E-1,-1.0503246E-1,-1.8440723E-1,-2.376045E-1,-5.39046E-2,1.0353721E-1,1.1795397E-1,2.2207138E-1,-2.5476846E-1,3.8070467E-1,1.4988963E-1,4.1129002E-1,-5.8818996E-1,-1.5455498E-1,4.5018584E-1,-5.285068E-2,-9.904613E-2,-1.3269576E0,-2.4564567E-1,2.6440707E-1,-2.0589533E-1,1.0947096E-1,-2.2584003E-1,1.2845497E-2,-1.0807068E-1,-2.3637794E-1,-4.667427E-1,8.232717E-2,-2.0009225E-2,4.3422863E-2,-9.748691E-2,-4.215455E-2,1.2702142E-1,-4.751768E-3,-9.2781104E-2,1.11364536E-1,-2.0779457E-2,2.791811E-2,-5.7190802E-2,-2.6750758E-2,7.54777E-2,7.6699875E-2,-6.613703E-2,-1.7151037E-2,-7.815014E-2,4.5542564E-2,-1.12484686E-1,1.0002631E-1,-1.345816E-3,6.438506E-2,-1.728209E-2,-9.636907E-3,-8.810388E-2,2.0369096E-2,9.926822E-2,-1.2763035E-1,3.6735516E-2,-1.4830206E-1,3.5790805E-2],"split_indices":[365,746,235,596,561,430,234,106,401,135,430,111,353,256,396,522,633,266,568,229,408,384,386,318,180,317,35,201,383,0,163,0,0,0,0,0,0,0,0,0,0,0,0,0,0,0,0,0,0,0,0,0,0,0,0,0,0,0,0,0,0],"split_type":[0,0,0,0,0,0,0,0,0,0,0,0,0,0,0,0,0,0,0,0,0,0,0,0,0,0,0,0,0,0,0,0,0,0,0,0,0,0,0,0,0,0,0,0,0,0,0,0,0,0,0,0,0,0,0,0,0,0,0,0,0],"sum_hessian":[1.3271692E3,7.4602844E2,5.8114075E2,3.1830353E2,4.2772488E2,3.0886642E2,2.7227432E2,2.200598E2,9.824373E1,2.4098856E2,1.8673634E2,9.591E1,2.1295642E2,2.628276E2,9.446724E0,2.1158972E2,8.470071E0,7.206747E1,2.6176264E1,9.456717E1,1.4642139E2,3.2908295E1,1.5382803E2,1.5644787E1,8.026521E1,1.06945915E2,1.06010506E2,2.5130426E2,1.1523328E1,2.129539E0,7.317185E0,5.0026436E0,2.0658708E2,3.8919713E0,4.578099E0,3.2869965E1,3.9197502E1,1.0021083E1,1.615518E1,3.656723E1,5.7999943E1,2.4628666E1,1.21792725E2,2.5025715E1,7.8825803E0,5.1652565E1,1.02175476E2,8.806905E0,6.837882E0,6.9929214E1,1.0336001E1,4.8333057E1,5.8612858E1,4.2810814E1,6.3199696E1,3.392844E1,2.1737582E2,5.439612E0,6.0837154E0,6.2924457E0,1.0247393E0],"tree_param":{"num_deleted":"0","num_feature":"768","num_nodes":"61","size_leaf_vector":"1"}},{"base_weights":[-3.6689908E-5,3.4229586E-1,-3.4395126E-1,-2.227038E-2,6.473004E-1,-7.438574E-1,-9.6088275E-2,-3.5445023E-1,4.6158147E-1,8.074705E-1,-2.4795169E-2,-9.743798E-1,-4.7729823E-1,-4.0915117E-1,2.687677E-1,5.219443E-1,-5.232027E-1,-2.4062526E-1,7.3202235E-1,8.585864E-1,-5.250214E-1,-5.189229E-1,5.650441E-1,-1.0012125E0,6.751703E-2,1.6526668E-1,-6.80319E-1,-8.301393E-1,-1.5202054E-1,-4.8443773E-1,4.7795677E-1,9.054301E-2,-4.7386564E-2,-1.2017198E-1,-2.590561E-2,3.7334528E-2,-7.5307705E-2,-3.3563834E-2,8.644559E-2,9.5827125E-2,1.7393142E-2,-1.1242493E-1,5.348705E-2,-7.859998E-2,3.1104196E-2,9.353516E-2,-4.619312E-2,6.250777E-2,-1.0236491E-1,7.0042215E-2,-4.3818783E-2,-8.6481035E-2,1.2479121E-3,-9.30092E-2,4.9638893E-2,-5.6316275E-2,2.2165535E-2,-7.302122E-2,7.114169E-2,8.247226E-2,7.720366E-3],"categories":[],"categories_nodes":[],"categories_segments":[],"categories_sizes":[],"default_left":[0,0,0,0,0,0,0,0,0,0,0,0,0,0,0,0,0,0,0,0,0,0,0,0,0,0,0,0,0,0,0,0,0,0,0,0,0,0,0,0,0,0,0,0,0,0,0,0,0,0,0,0,0,0,0,0,0,0,0,0,0],"id":17,"left_children":[1,3,5,7,9,11,13,15,17,19,21,23,25,27,29,31,33,35,37,39,41,43,45,47,-1,49,51,53,55,57,59,-1,-1,-1,-1,-1,-1,-1,-1,-1,-1,-1,-1,-1,-1,-1,-1,-1,-1,-1,-1,-1,-1,-1,-1,-1,-1,-1,-1,-1,-1],"loss_changes":[1.5199353E2,7.1955864E1,6.3764236E1,4.768774E1,3.7945374E1,1.4668121E1,4.5654617E1,2.6285608E1,2.3116308E1,1.9830734E1,2.0337019E1,6.478943E0,1.5267485E1,2.314685E1,2.93395E1,1.1465263E1,2.6212078E1,1.1085555E1,1.2656166E1,1.8561096E1,7.6716356E0,8.655112E0,1.253623E1,5.3618317E0,0E0,9.574302E0,1.1319229E1,1.1241051E1,2.08189E1,1.2467578E1,2.0098724E1,0E0,0E0,0E0,0E0,0E0,0E0,0E0,0E0,0E0,0E0,0E0,0E0,0E0,0E0,0E0,0E0,0E0,0E0,0E0,0E0,0E0,0E0,0E0,0E0,0E0,0E0,0E0,0E0,0E0,0E0],"parents":[2147483647,0,0,1,1,2,2,3,3,4,4,5,5,6,6,7,7,8,8,9,9,10,10,11,11,12,12,13,13,14,14,15,15,16,16,17,17,18,18,19,19,20,20,21,21,22,22,23,23,25,25,26,26,27,27,28,28,29,29,30,30],"right_children":[2,4,6,8,10,12,14,16,18,20,22,24,26,28,30,32,34,36,38,40,42,44,46,48,-1,50,52,54,56,58,60,-1,-1,-1,-1,-1,-1,-1,-1,-1,-1,-1,-1,-1,-1,-1,-1,-1,-1,-1,-1,-1,-1,-1,-1,-1,-1,-1,-1,-1,-1],"split_conditions":[7.336526E-2,-2.7968078E0,4.5055952E-2,-1.491679E-2,2.3847386E-1,-1.327202E-1,3.7923765E-1,-3.5617697E-1,-1.0647591E-1,2.1373335E-2,1.5674038E-1,3.474565E-1,-2.3061346E-1,-3.4046528E-1,-1.3643059E-2,3.3693838E-1,1.7821486E-1,-8.114818E-1,-3.1794202E-1,1.6720417E-1,3.7199488E-1,1.22534536E-1,5.6853667E-2,-3.7123775E-1,6.751703E-2,-2.7592877E-1,2.373262E-1,1.3707589E-1,3.2872245E-1,1.16053475E-2,-4.928533E-1,9.054301E-2,-4.7386564E-2,-1.2017198E-1,-2.590561E-2,3.7334528E-2,-7.5307705E-2,-3.3563834E-2,8.644559E-2,9.5827125E-2,1.7393142E-2,-1.1242493E-1,5.348705E-2,-7.859998E-2,3.1104196E-2,9.353516E-2,-4.619312E-2,6.250777E-2,-1.0236491E-1,7.0042215E-2,-4.3818783E-2,-8.6481035E-2,1.2479121E-3,-9.30092E-2,4.9638893E-2,-5.6316275E-2,2.2165535E-2,-7.302122E-2,7.114169E-2,8.247226E-2,7.720366E-3],"split_indices":[648,273,94,124,384,746,453,375,486,761,401,426,430,265,479,221,159,535,232,634,364,320,4,16,0,622,60,416,81,506,103,0,0,0,0,0,0,0,0,0,0,0,0,0,0,0,0,0,0,0,0,0,0,0,0,0,0,0,0,0,0],"split_type":[0,0,0,0,0,0,0,0,0,0,0,0,0,0,0,0,0,0,0,0,0,0,0,0,0,0,0,0,0,0,0,0,0,0,0,0,0,0,0,0,0,0,0,0,0,0,0,0,0,0,0,0,0,0,0,0,0,0,0,0,0],"sum_hessian":[1.2890002E3,6.459883E2,6.4301196E2,2.9468448E2,3.5130383E2,2.4527702E2,3.9773495E2,1.7488663E2,1.19797844E2,2.8353253E2,6.77713E1,1.3010544E2,1.15171585E2,2.1399564E2,1.8373932E2,2.7899765E1,1.4698686E2,3.3339977E1,8.645787E1,2.7340024E2,1.0132295E1,3.6943092E1,3.0828213E1,1.2840968E2,1.6957572E0,2.769675E1,8.747484E1,8.029836E1,1.3369728E2,3.965215E1,1.4408717E2,2.0208315E1,7.6914496E0,4.019302E1,1.0679383E2,1.52911005E1,1.8048876E1,9.371528E0,7.708634E1,2.3830385E2,3.5096375E1,6.4340014E0,3.6982932E0,2.7989304E1,8.953789E0,2.2723701E1,8.104512E0,1.381938E0,1.2702775E2,1.4593901E1,1.3102851E1,6.8883064E1,1.8591768E1,7.4949814E1,5.3485513E0,6.341592E1,7.028136E1,3.3215096E1,6.437051E0,7.667955E1,6.7407616E1],"tree_param":{"num_deleted":"0","num_feature":"768","num_nodes":"61","size_leaf_vector":"1"}},{"base_weights":[-1.0369575E-4,1.9187495E-1,-5.592976E-1,6.471652E-1,-1.5265573E-2,-8.139976E-1,-2.4370013E-1,4.5539733E-2,8.025656E-1,-2.8995222E-1,2.987393E-1,-1.4357942E-1,-9.158863E-1,2.591417E-1,-6.1303264E-1,-4.777451E-1,5.262994E-1,-6.379602E-1,8.5702056E-1,-1.0036627E0,-1.2843259E-1,5.531861E-1,-1.5874621E-1,-5.581913E-1,8.4515744E-1,8.416791E-2,-9.5590895E-1,-4.6850017E-1,6.001415E-1,-7.9349375E-1,3.9962556E-2,-1.3243856E-1,1.1644799E-2,-8.213791E-2,7.178126E-2,-1.2352264E-1,6.2654346E-2,5.2142948E-2,1.0354501E-1,3.9663874E-2,-1.07361734E-1,-5.0399777E-2,1.5027615E-2,-5.7886988E-2,6.65478E-2,2.0857876E-2,-6.8140954E-2,-7.4260265E-2,1.1256973E-1,-6.4566895E-2,1.20406784E-1,-8.8551864E-2,1.01217404E-1,-9.83822E-2,5.53873E-2,-7.10052E-2,9.678307E-2,-5.5022635E-2,8.747158E-2,4.257153E-2,-8.6565524E-2,9.418339E-2,-4.9109552E-2],"categories":[],"categories_nodes":[],"categories_segments":[],"categories_sizes":[],"default_left":[0,0,0,0,0,0,0,0,0,0,0,0,0,0,0,0,0,0,0,0,0,0,0,0,0,0,0,0,0,0,0,0,0,0,0,0,0,0,0,0,0,0,0,0,0,0,0,0,0,0,0,0,0,0,0,0,0,0,0,0,0,0,0],"id":18,"left_children":[1,3,5,7,9,11,13,15,17,19,21,23,25,27,29,31,33,35,37,39,41,43,45,47,49,51,53,55,57,59,61,-1,-1,-1,-1,-1,-1,-1,-1,-1,-1,-1,-1,-1,-1,-1,-1,-1,-1,-1,-1,-1,-1,-1,-1,-1,-1,-1,-1,-1,-1,-1,-1],"loss_changes":[1.3482614E2,8.818277E1,2.5602509E1,2.7298424E1,5.55956E1,1.1972511E1,2.704641E1,1.5617143E1,1.8769012E1,3.950135E1,3.5100483E1,1.0541239E1,6.22966E0,1.5667639E1,9.902847E0,1.5130471E1,8.92833E0,7.597363E0,1.2888779E1,6.6261635E0,2.9539495E1,2.4983612E1,2.0929972E1,6.3969955E0,4.873316E0,7.0433517E0,6.773712E0,7.747268E0,1.3956499E1,6.146839E0,9.605332E0,0E0,0E0,0E0,0E0,0E0,0E0,0E0,0E0,0E0,0E0,0E0,0E0,0E0,0E0,0E0,0E0,0E0,0E0,0E0,0E0,0E0,0E0,0E0,0E0,0E0,0E0,0E0,0E0,0E0,0E0,0E0,0E0],"parents":[2147483647,0,0,1,1,2,2,3,3,4,4,5,5,6,6,7,7,8,8,9,9,10,10,11,11,12,12,13,13,14,14,15,15,16,16,17,17,18,18,19,19,20,20,21,21,22,22,23,23,24,24,25,25,26,26,27,27,28,28,29,29,30,30],"right_children":[2,4,6,8,10,12,14,16,18,20,22,24,26,28,30,32,34,36,38,40,42,44,46,48,50,52,54,56,58,60,62,-1,-1,-1,-1,-1,-1,-1,-1,-1,-1,-1,-1,-1,-1,-1,-1,-1,-1,-1,-1,-1,-1,-1,-1,-1,-1,-1,-1,-1,-1,-1,-1],"split_conditions":[4.710168E-1,-4.4883674E-1,1.5920725E-1,-3.183276E-1,-1.9357687E-1,1.8146358E-1,-1.5467206E-1,-2.6713583E0,-1.641752E-1,9.864993E-2,1.6778488E-1,2.6950613E-1,-1.4262882E0,2.1786231E-1,-4.6568587E-1,1.7861214E-1,-3.574666E-1,2.0208926E-1,2.4600741E-1,2.058285E-1,1.285618E-1,-7.672564E-2,-5.9672143E-2,3.0733837E-2,-2.0794754E-1,1.348015E-1,6.0945344E-1,3.312142E-1,-2.2040658E-1,-5.6180567E-1,-1.4000422E-1,-1.3243856E-1,1.1644799E-2,-8.213791E-2,7.178126E-2,-1.2352264E-1,6.2654346E-2,5.2142948E-2,1.0354501E-1,3.9663874E-2,-1.07361734E-1,-5.0399777E-2,1.5027615E-2,-5.7886988E-2,6.65478E-2,2.0857876E-2,-6.8140954E-2,-7.4260265E-2,1.1256973E-1,-6.4566895E-2,1.20406784E-1,-8.8551864E-2,1.01217404E-1,-9.83822E-2,5.53873E-2,-7.10052E-2,9.678307E-2,-5.5022635E-2,8.747158E-2,4.257153E-2,-8.6565524E-2,9.418339E-2,-4.9109552E-2],"split_indices":[221,690,602,435,133,256,27,273,513,426,321,125,229,186,56,602,119,6,620,698,94,391,380,123,746,29,664,515,506,113,65,0,0,0,0,0,0,0,0,0,0,0,0,0,0,0,0,0,0,0,0,0,0,0,0,0,0,0,0,0,0,0,0],"split_type":[0,0,0,0,0,0,0,0,0,0,0,0,0,0,0,0,0,0,0,0,0,0,0,0,0,0,0,0,0,0,0,0,0,0,0,0,0,0,0,0,0,0,0,0,0,0,0,0,0,0,0,0,0,0,0,0,0,0,0,0,0,0,0],"sum_hessian":[1.2539111E3,9.339356E2,3.1997552E2,2.9137518E2,6.425604E2,1.7619763E2,1.4377788E2,6.0078217E1,2.3129698E2,3.427791E2,2.9978128E2,2.3563179E1,1.5263446E2,6.1010784E1,8.27671E1,2.8769838E1,3.1308378E1,8.034734E0,2.2326224E2,6.2296085E1,2.8048303E2,1.925041E2,1.0727718E2,1.6908361E1,6.6548166E0,5.831007E0,1.4680345E2,1.9349018E1,4.1661766E1,6.467768E1,1.8089418E1,1.1357763E1,1.7412075E1,3.4863112E0,2.7822065E1,5.4728713E0,2.561862E0,7.886152E1,1.4440073E2,2.7418454E0,5.955424E1,1.1913632E2,1.6134671E2,1.6996918E1,1.7550719E2,6.335357E1,4.3923615E1,1.5743235E1,1.1651276E0,1.1362288E0,5.5185876E0,2.8738573E0,2.9571497E0,1.4448065E2,2.322806E0,1.6996344E1,2.3526747E0,7.834421E0,3.3827343E1,3.340391E0,6.133729E1,6.417452E0,1.1671966E1],"tree_param":{"num_deleted":"0","num_feature":"768","num_nodes":"63","size_leaf_vector":"1"}},{"base_weights":[-2.589726E-4,1.9959034E-1,-4.918869E-1,6.004176E-1,-4.043735E-2,-8.122288E-1,-2.1499941E-1,-2.7501952E-2,7.689564E-1,3.8599664E-1,-2.4517758E-1,-8.532169E-1,6.8367016E-1,8.761065E-2,-6.020286E-1,-3.1339017E-1,7.5981617E-1,8.1439996E-1,-6.3900244E-1,-1.6739213E-1,6.9672424E-1,-5.846083E-1,1.3529747E-2,-9.406243E-1,-2.8348142E-1,1.22321524E-1,-6.284952E-2,-4.543995E-1,4.3092674E-1,3.2982105E-1,-8.2111937E-1,-5.6027647E-2,5.31976E-2,1.223241E-1,-5.538422E-3,-2.4512535E-2,8.62494E-2,8.479488E-2,-1.2631206E-1,-1.2123561E-1,5.891539E-3,9.896653E-2,1.18558165E-2,-1.6790135E-2,-8.6268604E-2,-3.099049E-2,4.321796E-2,1.720138E-2,-9.844347E-2,3.062489E-2,-8.248635E-2,3.375409E-2,-7.3811464E-2,8.905531E-2,-2.5036274E-2,8.206612E-2,-6.127721E-2,5.1367115E-2,-9.394909E-2],"categories":[],"categories_nodes":[],"categories_segments":[],"categories_sizes":[],"default_left":[0,0,0,0,0,0,0,0,0,0,0,0,0,0,0,0,0,0,0,0,0,0,0,0,0,0,0,0,0,0,0,0,0,0,0,0,0,0,0,0,0,0,0,0,0,0,0,0,0,0,0,0,0,0,0,0,0,0,0],"id":19,"left_children":[1,3,5,7,9,11,13,15,17,19,21,23,25,27,29,31,33,35,37,39,41,43,45,47,49,-1,-1,51,53,55,57,-1,-1,-1,-1,-1,-1,-1,-1,-1,-1,-1,-1,-1,-1,-1,-1,-1,-1,-1,-1,-1,-1,-1,-1,-1,-1,-1,-1],"loss_changes":[1.2007228E2,8.361947E1,3.1154282E1,3.446824E1,4.762414E1,1.0601631E1,2.2400517E1,1.5959006E1,1.6941788E1,3.0548355E1,3.2359245E1,7.6753387E0,4.2469053E0,2.028473E1,1.7390553E1,1.1139797E1,7.2069626E0,1.2903168E1,9.038354E0,1.5311679E1,1.9111324E1,1.8322231E1,2.8574955E1,6.888191E0,7.4821835E0,0E0,0E0,9.764849E0,2.108012E1,8.218163E0,1.12549095E1,0E0,0E0,0E0,0E0,0E0,0E0,0E0,0E0,0E0,0E0,0E0,0E0,0E0,0E0,0E0,0E0,0E0,0E0,0E0,0E0,0E0,0E0,0E0,0E0,0E0,0E0,0E0,0E0],"parents":[2147483647,0,0,1,1,2,2,3,3,4,4,5,5,6,6,7,7,8,8,9,9,10,10,11,11,12,12,13,13,14,14,15,15,16,16,17,17,18,18,19,19,20,20,21,21,22,22,23,23,24,24,27,27,28,28,29,29,30,30],"right_children":[2,4,6,8,10,12,14,16,18,20,22,24,26,28,30,32,34,36,38,40,42,44,46,48,50,-1,-1,52,54,56,58,-1,-1,-1,-1,-1,-1,-1,-1,-1,-1,-1,-1,-1,-1,-1,-1,-1,-1,-1,-1,-1,-1,-1,-1,-1,-1,-1,-1],"split_conditions":[1.0650012E-1,-5.154612E-1,-1.697775E-2,3.0572444E-1,3.879518E-1,-2.821656E-1,-3.9375556E-1,2.2675951E-1,2.130559E-1,-1.4803717E-1,1.20718025E-1,-1.3122159E-1,-6.6415374E-3,2.6901513E-1,1.375286E-1,3.2718822E-1,1.722041E-1,-1.5045248E-1,-3.9558563E-1,-4.3668464E-2,1.4580144E-1,6.6259615E-2,2.298011E-1,-4.60966E-2,-9.476856E-2,1.22321524E-1,-6.284952E-2,-7.59057E-2,2.2158858E-1,2.98135E-1,1.1056319E-1,-5.6027647E-2,5.31976E-2,1.223241E-1,-5.538422E-3,-2.4512535E-2,8.62494E-2,8.479488E-2,-1.2631206E-1,-1.2123561E-1,5.891539E-3,9.896653E-2,1.18558165E-2,-1.6790135E-2,-8.6268604E-2,-3.099049E-2,4.321796E-2,1.720138E-2,-9.844347E-2,3.062489E-2,-8.248635E-2,3.375409E-2,-7.3811464E-2,8.905531E-2,-2.5036274E-2,8.206612E-2,-6.127721E-2,5.1367115E-2,-9.394909E-2],"split_indices":[169,103,579,453,698,608,244,118,64,235,104,133,452,186,88,448,548,558,180,26,353,550,55,573,709,0,0,747,423,639,332,0,0,0,0,0,0,0,0,0,0,0,0,0,0,0,0,0,0,0,0,0,0,0,0,0,0,0,0],"split_type":[0,0,0,0,0,0,0,0,0,0,0,0,0,0,0,0,0,0,0,0,0,0,0,0,0,0,0,0,0,0,0,0,0,0,0,0,0,0,0,0,0,0,0,0,0,0,0,0,0,0,0,0,0,0,0,0,0,0,0],"sum_hessian":[1.2200918E3,8.6788574E2,3.5220605E2,3.244981E2,5.4338763E2,1.623934E2,1.8981265E2,6.884423E1,2.5565387E2,1.7597685E2,3.674108E2,1.5848062E2,3.9127922E0,1.0695803E2,8.285462E1,5.094662E1,1.7897606E1,2.4806874E2,7.5851355E0,6.3445393E1,1.1253146E2,1.5836806E2,2.0904272E2,1.3683652E2,2.1644104E1,2.820733E0,1.0920591E0,4.135123E1,6.56068E1,1.5675835E1,6.717879E1,3.969196E1,1.1254662E1,1.1091676E1,6.8059316E0,1.0593525E1,2.3747522E2,2.1364484E0,5.448687E0,1.0518698E1,5.2926693E1,7.421633E1,3.8315132E1,6.402647E1,9.434159E1,1.18078804E2,9.096392E1,5.072988E0,1.3176352E2,1.0567352E1,1.1076753E1,1.0856769E1,3.0494463E1,3.89932E1,2.6613598E1,1.0393136E1,5.282699E0,5.2002115E0,6.1978573E1],"tree_param":{"num_deleted":"0","num_feature":"768","num_nodes":"59","size_leaf_vector":"1"}},{"base_weights":[-2.6188654E-4,4.4391564E-1,-2.0449065E-1,-7.561937E-2,6.283884E-1,-4.4272456E-1,1.4760013E-1,3.3274367E-1,-5.457425E-1,2.522368E-1,8.4412783E-1,-7.127279E-1,-1.9344595E-1,3.6494008E-1,-3.3829272E-1,8.4821576E-1,-8.094423E-2,4.526691E-2,-8.668321E-1,4.8132724E-1,-5.587615E-1,8.974396E-1,-4.0257528E-1,-7.970769E-1,9.915247E-2,2.3144314E-1,-4.6005702E-1,-2.9807067E-1,5.556936E-1,5.6983083E-1,-4.930134E-1,1.05865516E-1,-8.9590736E-2,-3.3726122E-2,1.1566547E-1,-7.2281376E-2,6.6467665E-2,-1.855517E-2,-1.19057976E-1,-8.6544305E-2,5.9735395E-2,-7.986207E-2,8.732489E-2,-3.5900888E-3,9.4894215E-2,4.3714892E-2,-1.050666E-1,-4.1694447E-2,-9.12016E-2,-6.923024E-2,7.637226E-2,4.4235226E-2,-6.9941446E-2,9.892691E-3,-7.0834786E-2,-5.6661844E-2,7.9340175E-2,2.780591E-2,9.369193E-2,-7.609364E-2,1.0142566E-1,-7.122416E-2,1.9982634E-2],"categories":[],"categories_nodes":[],"categories_segments":[],"categories_sizes":[],"default_left":[0,0,0,0,0,0,0,0,0,0,0,0,0,0,0,0,0,0,0,0,0,0,0,0,0,0,0,0,0,0,0,0,0,0,0,0,0,0,0,0,0,0,0,0,0,0,0,0,0,0,0,0,0,0,0,0,0,0,0,0,0,0,0],"id":20,"left_children":[1,3,5,7,9,11,13,15,17,19,21,23,25,27,29,31,33,35,37,39,41,43,45,47,49,51,53,55,57,59,61,-1,-1,-1,-1,-1,-1,-1,-1,-1,-1,-1,-1,-1,-1,-1,-1,-1,-1,-1,-1,-1,-1,-1,-1,-1,-1,-1,-1,-1,-1,-1,-1],"loss_changes":[1.0812603E2,3.6028557E1,6.8554825E1,1.9238934E1,2.2278915E1,3.2657036E1,3.500098E1,1.152928E1,8.867737E0,1.9303167E1,1.203978E1,1.6071426E1,2.8961298E1,2.9086735E1,1.4695506E1,9.762903E0,1.0137739E1,8.724338E0,6.4389534E0,1.3083641E1,8.607164E0,8.148956E0,4.7564545E0,8.867676E0,1.2556824E1,1.9720985E1,2.1838943E1,1.5616156E1,1.8572186E1,9.878723E0,1.3537895E1,0E0,0E0,0E0,0E0,0E0,0E0,0E0,0E0,0E0,0E0,0E0,0E0,0E0,0E0,0E0,0E0,0E0,0E0,0E0,0E0,0E0,0E0,0E0,0E0,0E0,0E0,0E0,0E0,0E0,0E0,0E0,0E0],"parents":[2147483647,0,0,1,1,2,2,3,3,4,4,5,5,6,6,7,7,8,8,9,9,10,10,11,11,12,12,13,13,14,14,15,15,16,16,17,17,18,18,19,19,20,20,21,21,22,22,23,23,24,24,25,25,26,26,27,27,28,28,29,29,30,30],"right_children":[2,4,6,8,10,12,14,16,18,20,22,24,26,28,30,32,34,36,38,40,42,44,46,48,50,52,54,56,58,60,62,-1,-1,-1,-1,-1,-1,-1,-1,-1,-1,-1,-1,-1,-1,-1,-1,-1,-1,-1,-1,-1,-1,-1,-1,-1,-1,-1,-1,-1,-1,-1,-1],"split_conditions":[1.09236434E-1,3.5518616E-1,-1.9227062E-1,3.598376E-2,2.3980127E-1,-1.8401852E-2,5.5860117E-2,2.641721E-1,-7.8730243E-1,-8.255289E-2,2.6177555E-1,9.410008E-2,-7.2106704E-2,-2.8866956E-1,1.1535559E-1,1.5611488E-1,2.4585032E-1,6.017957E-2,1.6924793E-1,-2.3747875E-1,9.059824E-3,-5.803907E-1,-4.65418E-2,3.736078E-1,-1.1383158E-1,-2.768643E0,-1.2896224E0,3.2401145E-1,3.065025E-1,-3.212212E-1,3.6709085E-1,1.05865516E-1,-8.9590736E-2,-3.3726122E-2,1.1566547E-1,-7.2281376E-2,6.6467665E-2,-1.855517E-2,-1.19057976E-1,-8.6544305E-2,5.9735395E-2,-7.986207E-2,8.732489E-2,-3.5900888E-3,9.4894215E-2,4.3714892E-2,-1.050666E-1,-4.1694447E-2,-9.12016E-2,-6.923024E-2,7.637226E-2,4.4235226E-2,-6.9941446E-2,9.892691E-3,-7.0834786E-2,-5.6661844E-2,7.9340175E-2,2.780591E-2,9.369193E-2,-7.609364E-2,1.0142566E-1,-7.122416E-2,1.9982634E-2],"split_indices":[367,368,133,704,125,579,737,370,381,761,648,421,266,232,463,600,734,147,695,408,730,441,548,221,746,46,229,471,603,32,462,0,0,0,0,0,0,0,0,0,0,0,0,0,0,0,0,0,0,0,0,0,0,0,0,0,0,0,0,0,0,0,0],"split_type":[0,0,0,0,0,0,0,0,0,0,0,0,0,0,0,0,0,0,0,0,0,0,0,0,0,0,0,0,0,0,0,0,0,0,0,0,0,0,0,0,0,0,0,0,0,0,0,0,0,0,0,0,0,0,0,0,0,0,0,0,0,0,0],"sum_hessian":[1.1899458E3,3.74428E2,8.155178E2,9.826686E1,2.7616116E2,4.8625052E2,3.2926733E2,5.274403E1,4.5522827E1,1.0144912E2,1.7471204E2,2.3252954E2,2.5372096E2,2.2767653E2,1.01590805E2,2.3015455E1,2.9728575E1,1.6327974E1,2.9194853E1,7.942086E1,2.2028263E1,1.6781601E2,6.89603E0,2.1066145E2,2.1868092E1,9.787414E1,1.5584682E2,5.074327E1,1.7693326E2,1.4398242E1,8.7192566E1,2.0888182E1,2.127274E0,2.5230598E1,4.4979777E0,7.2146826E0,9.113292E0,9.911232E0,1.928362E1,5.7872176E0,7.3633644E1,1.924677E1,2.7814927E0,8.791816E0,1.590242E2,3.1456833E0,3.7503467E0,4.9982952E1,1.606785E2,9.962155E0,1.1905935E1,8.022251E1,1.7651628E1,4.811832E1,1.077285E2,4.1109486E1,9.633782E0,1.0337668E2,7.355657E1,3.426354E0,1.0971889E1,6.621335E1,2.0979218E1],"tree_param":{"num_deleted":"0","num_feature":"768","num_nodes":"63","size_leaf_vector":"1"}},{"base_weights":[-3.203098E-4,-2.2772741E-1,3.6316824E-1,-6.02496E-1,-2.866934E-2,5.717465E-2,6.5237594E-1,-8.500088E-1,-2.9850647E-1,-3.7479237E-1,2.4302086E-1,6.07893E-1,-1.9740422E-1,7.12366E-1,-8.281758E-1,6.4065963E-1,-8.7916183E-1,1.334645E-1,-6.113202E-1,-5.690993E-1,7.388621E-2,5.205421E-1,-1.3417612E-1,-2.0103873E-1,7.958448E-1,1.9093934E-1,-5.98381E-1,7.486462E-2,8.1048334E-1,4.2225558E-1,-1.2627419E0,1.492412E-1,-5.9442967E-2,1.269387E-2,-9.276948E-2,6.738479E-2,-2.9998953E-2,-7.929065E-2,1.536418E-2,-9.3068086E-2,-3.4805547E-2,-1.6066E-2,1.0167791E-1,6.631739E-2,-2.7725725E-2,-3.3025447E-2,7.420616E-2,-1.17873624E-1,5.527177E-2,8.760023E-2,-6.4930335E-2,-9.475816E-2,3.4196585E-2,-9.8335244E-2,-9.949057E-3,-7.036372E-2,6.341915E-2,9.233107E-2,2.4189083E-2,-3.5077367E-2,9.5366865E-2,1.46435E-2,-1.5505789E-1],"categories":[],"categories_nodes":[],"categories_segments":[],"categories_sizes":[],"default_left":[0,0,0,0,0,0,0,0,0,0,0,0,0,0,0,0,0,0,0,0,0,0,0,0,0,0,0,0,0,0,0,0,0,0,0,0,0,0,0,0,0,0,0,0,0,0,0,0,0,0,0,0,0,0,0,0,0,0,0,0,0,0,0],"id":21,"left_children":[1,3,5,7,9,11,13,15,17,19,21,23,25,27,29,31,33,35,37,39,41,43,45,47,49,51,53,55,57,59,61,-1,-1,-1,-1,-1,-1,-1,-1,-1,-1,-1,-1,-1,-1,-1,-1,-1,-1,-1,-1,-1,-1,-1,-1,-1,-1,-1,-1,-1,-1,-1,-1],"loss_changes":[9.599999E1,5.3279255E1,3.9516865E1,1.8389587E1,4.4067413E1,3.0722307E1,2.099041E1,6.4750443E0,1.5316359E1,1.8005297E1,2.75587E1,1.0688509E1,2.3475803E1,1.3780411E1,5.64472E0,4.240769E0,6.65345E0,1.1486039E1,9.229986E0,1.1176842E1,1.4129257E1,1.742255E1,1.9505974E1,1.0861413E1,7.1014175E0,1.3559075E1,1.4124926E1,1.3777734E1,1.2072456E1,1.6389709E0,3.160143E0,0E0,0E0,0E0,0E0,0E0,0E0,0E0,0E0,0E0,0E0,0E0,0E0,0E0,0E0,0E0,0E0,0E0,0E0,0E0,0E0,0E0,0E0,0E0,0E0,0E0,0E0,0E0,0E0,0E0,0E0,0E0,0E0],"parents":[2147483647,0,0,1,1,2,2,3,3,4,4,5,5,6,6,7,7,8,8,9,9,10,10,11,11,12,12,13,13,14,14,15,15,16,16,17,17,18,18,19,19,20,20,21,21,22,22,23,23,24,24,25,25,26,26,27,27,28,28,29,29,30,30],"right_children":[2,4,6,8,10,12,14,16,18,20,22,24,26,28,30,32,34,36,38,40,42,44,46,48,50,52,54,56,58,60,62,-1,-1,-1,-1,-1,-1,-1,-1,-1,-1,-1,-1,-1,-1,-1,-1,-1,-1,-1,-1,-1,-1,-1,-1,-1,-1,-1,-1,-1,-1,-1,-1],"split_conditions":[-1.3771741E-1,1.564986E-1,-1.2817155E-1,-1.0836789E-1,-9.216693E-2,-5.607588E-1,-5.39046E-2,-1.561566E-1,6.5680824E-2,-4.6951048E-2,-7.60955E-1,1.840839E-1,1.6348147E-1,-2.4139296E-1,-3.1771863E-1,3.6830804E-1,-5.914617E-1,1.0431174E0,-1.4357248E-1,-6.64983E-3,3.403359E-1,-1.1557916E0,5.312315E-1,2.836286E-1,4.0173122E-1,1.7077355E-1,4.4299927E-1,-5.565437E0,2.8188843E-1,-3.8653933E-3,1.2469146E-1,1.492412E-1,-5.9442967E-2,1.269387E-2,-9.276948E-2,6.738479E-2,-2.9998953E-2,-7.929065E-2,1.536418E-2,-9.3068086E-2,-3.4805547E-2,-1.6066E-2,1.0167791E-1,6.631739E-2,-2.7725725E-2,-3.3025447E-2,7.420616E-2,-1.17873624E-1,5.527177E-2,8.760023E-2,-6.4930335E-2,-9.475816E-2,3.4196585E-2,-9.8335244E-2,-9.949057E-3,-7.036372E-2,6.341915E-2,9.233107E-2,2.4189083E-2,-3.5077367E-2,9.5366865E-2,1.46435E-2,-1.5505789E-1],"split_indices":[365,602,235,746,444,103,234,656,206,163,381,448,372,201,329,111,68,422,32,479,283,229,160,125,359,186,662,752,31,600,96,0,0,0,0,0,0,0,0,0,0,0,0,0,0,0,0,0,0,0,0,0,0,0,0,0,0,0,0,0,0,0,0],"split_type":[0,0,0,0,0,0,0,0,0,0,0,0,0,0,0,0,0,0,0,0,0,0,0,0,0,0,0,0,0,0,0,0,0,0,0,0,0,0,0,0,0,0,0,0,0,0,0,0,0,0,0,0,0,0,0,0,0,0,0,0,0,0,0],"sum_hessian":[1.1593851E3,7.134237E2,4.4596143E2,2.4678064E2,4.6664307E2,2.1727415E2,2.2868727E2,1.350361E2,1.11744545E2,2.0504457E2,2.615985E2,6.8248215E1,1.4902594E2,2.2028062E2,8.406635E0,2.1878955E0,1.328482E2,4.7174133E1,6.457041E1,1.4289386E2,6.2150707E1,1.5049348E2,1.1110503E2,1.285435E1,5.539386E1,7.5971664E1,7.3054276E1,2.9616352E1,1.9066428E2,2.1754038E0,6.2312317E0,1.1715906E0,1.016305E0,6.0391717E0,1.2680903E2,2.0750307E1,2.6423828E1,5.2153667E1,1.2416743E1,5.29949E1,8.9898964E1,5.043462E1,1.1716089E1,1.2781184E2,2.2681648E1,9.129808E1,1.9806948E1,5.3504567E0,7.5038934E0,5.2855953E1,2.5379083E0,8.279789E0,6.769187E1,4.068692E1,3.2367355E1,1.22743E1,1.7342052E1,1.5857414E2,3.2090134E1,1.0247117E0,1.150692E0,1.1402266E0,5.091005E0],"tree_param":{"num_deleted":"0","num_feature":"768","num_nodes":"63","size_leaf_vector":"1"}},{"base_weights":[-4.2738373E-4,2.886065E-1,-2.648135E-1,-6.2974006E-1,4.1279396E-1,-9.367663E-2,-6.6084015E-1,-9.7989184E-1,-3.0339453E-2,1.1743655E-1,6.775033E-1,2.4880165E-1,-3.0576366E-1,6.425607E-1,-7.024231E-1,2.0950258E-1,-1.0756449E0,-6.2454396E-1,5.795651E-1,7.053701E-1,-3.4426525E-2,7.9967044E-2,7.982462E-1,4.4832253E-1,-3.2264337E-1,2.3284663E-1,-4.6475747E-1,-4.923495E-1,1.5105213E-1,-4.5010594E-1,-9.0569866E-1,-7.2001725E-2,9.911421E-2,-1.1329494E-1,5.6974957E-4,1.7524166E-2,-1.1407906E-1,-5.0186962E-2,9.814223E-2,-4.239909E-2,9.325876E-2,-4.8383653E-2,1.5691701E-2,8.6764716E-2,-3.358598E-2,9.079408E-2,2.9478533E-2,-3.340287E-3,7.629555E-2,5.479762E-3,-1.0997192E-1,4.547937E-2,-5.6952447E-2,-6.1334826E-2,9.857061E-3,3.9128694E-3,-7.386448E-2,-6.038448E-2,3.325031E-2,3.1884965E-2,-9.497162E-2],"categories":[],"categories_nodes":[],"categories_segments":[],"categories_sizes":[],"default_left":[0,0,0,0,0,0,0,0,0,0,0,0,0,0,0,0,0,0,0,0,0,0,0,0,0,0,0,0,0,0,0,0,0,0,0,0,0,0,0,0,0,0,0,0,0,0,0,0,0,0,0,0,0,0,0,0,0,0,0,0,0],"id":22,"left_children":[1,3,5,7,9,11,13,15,17,19,21,23,25,27,29,31,33,35,37,39,41,43,45,47,49,51,53,55,-1,57,59,-1,-1,-1,-1,-1,-1,-1,-1,-1,-1,-1,-1,-1,-1,-1,-1,-1,-1,-1,-1,-1,-1,-1,-1,-1,-1,-1,-1,-1,-1],"loss_changes":[8.657238E1,6.1984905E1,4.0038918E1,1.3584604E1,3.7241997E1,3.01695E1,1.0118797E1,4.8850784E0,9.4047365E0,2.0276608E1,1.808358E1,1.8272957E1,2.2057505E1,6.690387E0,8.482506E0,3.5366113E0,2.3629875E0,5.6169653E0,6.0690885E0,1.2355719E1,1.5659166E1,1.4504448E1,1.1282303E1,1.7951214E1,1.2299509E1,1.0780727E1,1.6653141E1,4.700784E-1,0E0,9.744938E0,5.4238434E0,0E0,0E0,0E0,0E0,0E0,0E0,0E0,0E0,0E0,0E0,0E0,0E0,0E0,0E0,0E0,0E0,0E0,0E0,0E0,0E0,0E0,0E0,0E0,0E0,0E0,0E0,0E0,0E0,0E0,0E0],"parents":[2147483647,0,0,1,1,2,2,3,3,4,4,5,5,6,6,7,7,8,8,9,9,10,10,11,11,12,12,13,13,14,14,15,15,16,16,17,17,18,18,19,19,20,20,21,21,22,22,23,23,24,24,25,25,26,26,27,27,29,29,30,30],"right_children":[2,4,6,8,10,12,14,16,18,20,22,24,26,28,30,32,34,36,38,40,42,44,46,48,50,52,54,56,-1,58,60,-1,-1,-1,-1,-1,-1,-1,-1,-1,-1,-1,-1,-1,-1,-1,-1,-1,-1,-1,-1,-1,-1,-1,-1,-1,-1,-1,-1,-1,-1],"split_conditions":[1.4261859E-2,-1.0801382E-1,4.6925223E-1,3.9173E-1,2.3091996E-1,-3.4160583E0,-3.2647243E-1,2.4261182E-2,-2.782938E-1,9.7437285E-2,-1.553933E-1,8.394178E-2,-5.870448E-1,-6.628919E-2,-2.3919399E-1,-2.4712257E-1,-1.1214338E-1,1.7161539E-1,-1.6905361E-1,1.489397E-2,2.36061E-1,-1.305449E0,-6.8797566E-2,4.317981E-2,5.152921E-2,1.8089141E-1,1.8765999E-2,-6.3546604E-1,1.5105213E-1,3.362202E-1,4.441056E-2,-7.2001725E-2,9.911421E-2,-1.1329494E-1,5.6974957E-4,1.7524166E-2,-1.1407906E-1,-5.0186962E-2,9.814223E-2,-4.239909E-2,9.325876E-2,-4.8383653E-2,1.5691701E-2,8.6764716E-2,-3.358598E-2,9.079408E-2,2.9478533E-2,-3.340287E-3,7.629555E-2,5.479762E-3,-1.0997192E-1,4.547937E-2,-5.6952447E-2,-6.1334826E-2,9.857061E-3,3.9128694E-3,-7.386448E-2,-6.038448E-2,3.325031E-2,3.1884965E-2,-9.497162E-2],"split_indices":[728,692,221,662,55,308,16,648,32,353,506,705,396,596,501,409,133,648,433,479,364,229,430,401,737,522,124,502,0,194,758,0,0,0,0,0,0,0,0,0,0,0,0,0,0,0,0,0,0,0,0,0,0,0,0,0,0,0,0,0,0],"split_type":[0,0,0,0,0,0,0,0,0,0,0,0,0,0,0,0,0,0,0,0,0,0,0,0,0,0,0,0,0,0,0,0,0,0,0,0,0,0,0,0,0,0,0,0,0,0,0,0,0,0,0,0,0,0,0,0,0,0,0,0,0],"sum_hessian":[1.1309009E3,5.4022314E2,5.9067773E2,6.386688E1,4.7635623E2,4.1330905E2,1.7736868E2,3.991497E1,2.395191E1,2.2582681E2,2.5052943E2,1.5799904E2,2.5531003E2,5.0368905E0,1.723318E2,2.8854508E0,3.702952E1,1.2119948E1,1.1831961E1,4.560881E1,1.80218E2,4.239349E1,2.0813594E2,1.1726962E2,4.072941E1,5.8082886E1,1.9722714E2,2.3703144E0,2.6665761E0,7.832483E1,9.4006966E1,1.3540554E0,1.5313954E0,3.5120617E1,1.9089026E0,5.013469E0,7.106479E0,3.1381185E0,8.693843E0,7.4941053E0,3.8114708E1,5.3360695E1,1.268573E2,1.4272065E1,2.8121424E1,1.7024037E2,3.789557E1,4.6685154E1,7.058447E1,2.8039536E1,1.2689872E1,4.5836937E1,1.2245948E1,1.5599188E2,4.1235252E1,1.0169592E0,1.3533552E0,6.56556E1,1.2669229E1,3.0452626E0,9.09617E1],"tree_param":{"num_deleted":"0","num_feature":"768","num_nodes":"61","size_leaf_vector":"1"}},{"base_weights":[-4.7109163E-4,-3.7612957E-1,1.8967998E-1,-1.5409546E-1,-6.8141836E-1,6.117206E-1,-1.7815294E-2,-4.7249368E-1,2.0715974E-1,-9.0276994E-2,-8.328428E-1,-1.344871E-1,7.742223E-1,-4.068319E-1,2.0526868E-1,-8.8812284E-2,-7.291927E-1,4.24236E-1,-9.4461477E-1,1.0400605E0,-5.314153E-1,-9.0724945E-1,1.7678833E-1,-5.5345535E-1,4.6238783E-1,7.304205E-2,8.7969005E-1,-1.787436E-2,-7.15361E-1,-3.857466E-1,3.4616485E-1,-6.4364776E-2,3.5319213E-2,-8.563449E-2,4.7246683E-2,7.263393E-2,-2.1627497E-2,3.4482803E-2,-1.2019284E-1,-4.6899475E-2,1.4673072E-1,4.113906E-3,-1.0028078E-1,-2.465195E-2,-1.012456E-1,-7.002175E-2,9.5219314E-2,-9.854278E-2,4.0535863E-2,-2.0359201E-2,1.1476543E-1,-5.3335935E-2,6.8788275E-2,-2.9643623E-2,9.3241766E-2,-6.5887034E-2,4.2282294E-2,-3.6900356E-2,-9.321939E-2,-6.6386364E-2,4.1094523E-2,5.017215E-3,6.3884914E-2],"categories":[],"categories_nodes":[],"categories_segments":[],"categories_sizes":[],"default_left":[0,0,0,0,0,0,0,0,0,0,0,0,0,0,0,0,0,0,0,0,0,0,0,0,0,0,0,0,0,0,0,0,0,0,0,0,0,0,0,0,0,0,0,0,0,0,0,0,0,0,0,0,0,0,0,0,0,0,0,0,0,0,0],"id":23,"left_children":[1,3,5,7,9,11,13,15,17,19,21,23,25,27,29,31,33,35,37,39,41,43,45,47,49,51,53,55,57,59,61,-1,-1,-1,-1,-1,-1,-1,-1,-1,-1,-1,-1,-1,-1,-1,-1,-1,-1,-1,-1,-1,-1,-1,-1,-1,-1,-1,-1,-1,-1,-1,-1],"loss_changes":[7.894914E1,2.5072586E1,6.427107E1,2.498098E1,1.3898201E1,2.9435707E1,4.286015E1,1.12903385E1,2.591316E1,1.6984934E1,9.486916E0,1.12861805E1,1.4636032E1,2.1585737E1,2.6275232E1,1.1840315E1,1.0937824E1,1.6904278E1,5.886281E0,6.870557E0,6.6174293E0,7.7994156E0,7.030742E0,1.1322152E1,8.784563E0,1.0463725E1,1.0986298E1,2.3057905E1,7.191841E0,1.3768035E1,2.1974829E1,0E0,0E0,0E0,0E0,0E0,0E0,0E0,0E0,0E0,0E0,0E0,0E0,0E0,0E0,0E0,0E0,0E0,0E0,0E0,0E0,0E0,0E0,0E0,0E0,0E0,0E0,0E0,0E0,0E0,0E0,0E0,0E0],"parents":[2147483647,0,0,1,1,2,2,3,3,4,4,5,5,6,6,7,7,8,8,9,9,10,10,11,11,12,12,13,13,14,14,15,15,16,16,17,17,18,18,19,19,20,20,21,21,22,22,23,23,24,24,25,25,26,26,27,27,28,28,29,29,30,30],"right_children":[2,4,6,8,10,12,14,16,18,20,22,24,26,28,30,32,34,36,38,40,42,44,46,48,50,52,54,56,58,60,62,-1,-1,-1,-1,-1,-1,-1,-1,-1,-1,-1,-1,-1,-1,-1,-1,-1,-1,-1,-1,-1,-1,-1,-1,-1,-1,-1,-1,-1,-1,-1,-1],"split_conditions":[-1.36693E-1,9.118767E-2,-1.9438364E-1,1.5992601E-1,-2.9409314E-2,-2.8863356E-2,-3.255791E-1,-2.7703172E-1,-2.4234167E-1,-1.59406E-1,4.0414527E-1,-6.101863E-2,2.1133846E-1,2.4979335E-1,-1.84002E-1,2.860766E-1,3.2090232E-1,-6.6759564E-2,-2.4957201E-1,-4.045819E-2,9.438977E-2,-5.1839995E-1,-2.6968065E-1,1.5471727E-1,2.8384155E-1,-1.2077405E-1,-2.7888656E-1,-1.7957193E-1,2.1797398E-1,4.9437362E-1,2.4113542E-1,-6.4364776E-2,3.5319213E-2,-8.563449E-2,4.7246683E-2,7.263393E-2,-2.1627497E-2,3.4482803E-2,-1.2019284E-1,-4.6899475E-2,1.4673072E-1,4.113906E-3,-1.0028078E-1,-2.465195E-2,-1.012456E-1,-7.002175E-2,9.5219314E-2,-9.854278E-2,4.0535863E-2,-2.0359201E-2,1.1476543E-1,-5.3335935E-2,6.8788275E-2,-2.9643623E-2,9.3241766E-2,-6.5887034E-2,4.2282294E-2,-3.6900356E-2,-9.321939E-2,-6.6386364E-2,4.1094523E-2,5.017215E-3,6.3884914E-2],"split_indices":[506,704,430,241,546,391,90,12,753,65,125,746,364,463,562,603,762,568,466,468,24,95,643,403,241,235,176,123,256,453,404,0,0,0,0,0,0,0,0,0,0,0,0,0,0,0,0,0,0,0,0,0,0,0,0,0,0,0,0,0,0,0,0],"split_type":[0,0,0,0,